tree
version=v4
num_class=1
num_tree_per_iteration=1
label_index=0
max_feature_idx=153
objective=binary sigmoid:1
feature_names=numero_de_cliente foto_mes active_quarter cliente_vip internet cliente_edad cliente_antiguedad mrentabilidad mrentabilidad_annual mcomisiones mactivos_margen mpasivos_margen cproductos tcuentas ccuenta_corriente mcuenta_corriente_adicional mcuenta_corriente ccaja_ahorro mcaja_ahorro mcaja_ahorro_adicional mcaja_ahorro_dolares cdescubierto_preacordado mcuentas_saldo ctarjeta_debito ctarjeta_debito_transacciones mautoservicio ctarjeta_visa ctarjeta_visa_transacciones mtarjeta_visa_consumo ctarjeta_master ctarjeta_master_transacciones mtarjeta_master_consumo cprestamos_personales mprestamos_personales cprestamos_prendarios mprestamos_prendarios cprestamos_hipotecarios mprestamos_hipotecarios cplazo_fijo mplazo_fijo_dolares mplazo_fijo_pesos cinversion1 minversion1_pesos minversion1_dolares cinversion2 minversion2 cseguro_vida cseguro_auto cseguro_vivienda cseguro_accidentes_personales ccaja_seguridad cpayroll_trx mpayroll mpayroll2 cpayroll2_trx ccuenta_debitos_automaticos mcuenta_debitos_automaticos ctarjeta_visa_debitos_automaticos mttarjeta_visa_debitos_automaticos ctarjeta_master_debitos_automaticos mttarjeta_master_debitos_automaticos cpagodeservicios mpagodeservicios cpagomiscuentas mpagomiscuentas ccajeros_propios_descuentos mcajeros_propios_descuentos ctarjeta_visa_descuentos mtarjeta_visa_descuentos ctarjeta_master_descuentos mtarjeta_master_descuentos ccomisiones_mantenimiento mcomisiones_mantenimiento ccomisiones_otras mcomisiones_otras cforex cforex_buy mforex_buy cforex_sell mforex_sell ctransferencias_recibidas mtransferencias_recibidas ctransferencias_emitidas mtransferencias_emitidas cextraccion_autoservicio mextraccion_autoservicio ccheques_depositados mcheques_depositados ccheques_emitidos mcheques_emitidos ccheques_depositados_rechazados mcheques_depositados_rechazados ccheques_emitidos_rechazados mcheques_emitidos_rechazados tcallcenter ccallcenter_transacciones thomebanking chomebanking_transacciones ccajas_transacciones ccajas_consultas ccajas_depositos ccajas_extracciones ccajas_otras catm_trx matm catm_trx_other matm_other ctrx_quarter tmobile_app cmobile_app_trx Master_delinquency Master_status Master_mfinanciacion_limite Master_Fvencimiento Master_Finiciomora Master_msaldototal Master_msaldopesos Master_msaldodolares Master_mconsumospesos Master_mconsumosdolares Master_mlimitecompra Master_madelantopesos Master_madelantodolares Master_fultimo_cierre Master_mpagado Master_mpagospesos Master_mpagosdolares Master_fechaalta Master_mconsumototal Master_cconsumos Master_cadelantosefectivo Master_mpagominimo Visa_delinquency Visa_status Visa_mfinanciacion_limite Visa_Fvencimiento Visa_Finiciomora Visa_msaldototal Visa_msaldopesos Visa_msaldodolares Visa_mconsumospesos Visa_mconsumosdolares Visa_mlimitecompra Visa_madelantopesos Visa_madelantodolares Visa_fultimo_cierre Visa_mpagado Visa_mpagospesos Visa_mpagosdolares Visa_fechaalta Visa_mconsumototal Visa_cconsumos Visa_cadelantosefectivo Visa_mpagominimo
feature_infos=[29183733:187466604] [202107:202107] [0:1] [0:1] [0:3] [18:99] [1:379] [-238030.54000000001:698065.96999999997] [-4295363.5199999996:5942038.8499999996] [-153633.97:558698.81999999995] [-227213.67000000001:306093.71999999997] [-26545.209999999999:579111.18000000005] [3:17] [1:2] [1:3] [-6695.8100000000004:36526455.590000004] [-3752357.8300000001:42472738.560000002] [2:10] [-5168.5500000000002:31580639.93] [-1986.8199999999999:4618808.0899999999] [-20187.240000000002:233532856.52000001] [0:1] [-6620905.1200000001:150424942.41999999] [0:114] [0:154] [0:733384.87] [0:3] [0:343] [0:3927464.75] [0:3] [0:452] [0:1516805.23] [0:469] [0:5457762.5700000003] [0:23] [0:16067508.17] [0:23] [0:24351944.829999998] [0:157] [0:72704608.079999998] [0:56705752.5] [0:16] [0:133930007.89] [0:72242254.280000001] [0:57] [0:112708885.09999999] [0:3] [0:6] [0:7] [0:2] [0:7] [0:100] [0:64032994.350000001] [0:11706540] [0:4] [0:87] [0:16784283.239999998] [0:87] [0:1141345.03] [0:26] [0:538990.43000000005] [0:29] [0:8978007.3200000003] [0:113] [0:15671964.84] [0:23] [0:24530.360000000001] [0:19] [0:85379.5] [0:24] [0:71845.309999999998] [0:41] [-10240:13881.65] [0:1700] [-153633.97:558698.81999999995] [0:13] [0:9] [0:11730] [0:12] [0:11242.440000000001] [0:647] [0:783605040.59000003] [0:265] [0:143322714.56] [0:239] [0:1642200] [0:200] [0:34003558.890000001] [0:188] [0:26547181.41] [0:8] [0:7996954.6699999999] [0:20] [0:1633329.77] [0:1] [0:65] [0:1] [0:1789] [0:1] [0:24] [0:31] [0:12] [0:119] [0:239] [0:1642200] [0:68] [0:944978.68000000005] [0:4089] [0:1] [0:1] [0:1] [0:9] [0:86090960.049999997] [-2914056:5237] [3:242] [-2025102.3400000001:4889377.6900000004] [-2025102.3400000001:4889377.6900000004] [-974760.29000000004:1295307] [-46802.699999999997:1516805.23] [0:14325.75] [985.32000000000005:9522132.4800000004] [0:18768] [0:144.27000000000001] [3:248] [0:1932431.3500000001] [-3055251.4500000002:571699.27000000002] [0:18206.119999999999] [3:7724] [-46802.699999999997:1516805.23] [0:445] [0:11] [0:3900060.7799999998] [0:1] [0:9] [0:103309129.39] [-2914056:5176] [6:265] [-1580465.51:6399031.3799999999] [-1853886.04:7506063.7999999998] [-1260754.96:1503846.24] [-34176.419999999998:3795608.8300000001] [0:15376.790000000001] [1011.71:13570671.6] [0:302469.40000000002] [0:3129.8499999999999] [3:3419] [0:2230979.2400000002] [-2698649.8900000001:34507.379999999997] [0:13277.93] [3:12730] [-34176.419999999998:3795608.8300000001] [0:226] [0:15] [0:6106110.1500000004]
tree_sizes=4232 4241 3707 3682 3839 3712 3740 4265 3968 3939 3798 4027 3939 4108 4302 4010 4147 4177 4327 4246 4448 4572 4234 4228 4387 4708 4455 4707 4715 4910 4562 4825 4510 4323 4415 4471 5254 4881 5158 5189 4591 4638 4665 5064 4716 4536 5341 4987 5218 5175 5480 4996 4969 5442 4723 5146 4738 6130 4084 5677 5207 5315 4063 4794 4639 4943 4687 5588 4491 4574 4600 5228 4212 5658 4914 4611 5163 5177 5212 4477 4075 4764 4673 4304 5077 5895 6281 3701 4186 4897 5346 3765 4280 4442 3857 4890 4784 4240 4199 4594 4364 5006 4673 4126 5031 4786 3920 5660 4370 3447 4582 6436 4080 4627 3943 5816 4951 3651 5573 4700 4418 4808 4577 4096 4430 5419 4370 4813 4349 4695 3716 4666 3251 5690 3157 6414 5983 4083 3971 4321 5317 5605 3451 4816 4123 5312 5179 3990 5100 4754 4214 3597 5851 4495 4525 3705 5257 3777 6726 4188 6266 4834 5903 5025 3522 3197 4673 4459 4461 4786 4084 6019 6220 4546 3472 5672 5010 5330 3745 3939 7357 4156 5288 5093 6642 5124 4971 6254 5534 4221 4891 6405 4719 3961 5532 3597 4264 3551 6295 5075 6819 4510 5972 3981 3459 4833 6025 4718 3529 3529 5437 6730 5579 4409 3118 3676 5545 4620 4752 3844 5895 4485 3427 3756 3350 6119 6826 6362 5488 4103 6286 5359 6265 5026 3879 5877 5231 4602 4924 3779 4576 5937 4715 6182 5610 4743 5447 2586 3171 4393 4803 5863 4235 4751 6292 3985 4436 5391 3651 5763 5960 5416 4286 2993 4655 5271 4945 6090 5416 4100 3055 7571 5376 4400 4685 5406 2880 6480 5333 3800 5197 6203 4949 3706 6470 6648 4013 4303 6724 6583 3476 6010 7138 4350 5088 3420 6658 4892 2538 4178 4925 4597 5947 4911 5820 5376 5105 6292 3903 6046 3114 6227 3392 4286 5117 6900 5472 4625 6336 5035 4051 5086 6738 5948 7346 6166 4497 7009 5000 3726 4980 6645 5584 7349 3953 5718 6131 6813 5857 6489 3305 3546 7077 6166 5430 6641 4610 7352 4090 4817 3516 7480 5547 6607 5170 4883 6843 4633 4793 6868 3826 6211 6939 5530 7478 3831 4726 6449 5722 6780 6035 5147 3476 5623 6682 2410 3842 6674 3213 3917 4985 5127 6582 5521 6949 7875 4010 5944 6401 4591 4859 3800 6593 4984 5622 5439 4315 5964 7263 7578 7311 5161 4607 7272 5981 4158 4758 5258 4195 6921 6027 2366 6162 6436 6795 6717 2669 6219 7980 5536 6053 6106 4073 4889 4171 8527 5620 5435 4686 3802 3531 7725 4467 8239 5151 3693 4827 5736 5393 4964 5211 7039 4043 7098 6296 3512 4048 5545 4551 6901 4514 7204 2379 7098 5491 5282 6755 6491 7759 7959 5209 6342 3602 6776 4397 5958 4932 3599 5510 6365 4133 3290 7429 7219 6983 5405 4279 7358 7632 4850 7109 6664 6986 5302 5213 3657 6309 5883 6821 2735 6560 6302 7060 5271 4124 6940 4520 2763 6565 5278 5139 5376 4530 7349 4999 4416 6298 6445 7571 6260 5391 3931 6764 5411 5958 4910 4085 3624 4352 6751 3114 4988 5945 4643 3320 2563 7394 4668 5304 5133 4017 4193 6550 7120 7622 4944 5039 4652 6197 5070 7745 3872 5447 5222 4321 6431 6492 4979 6422 3962 5978 4273 5495 6079 4376 3736 7713 6948 4035 5720 6415 7486 5985 6967 4170 6505 5195 3202 6184 7737 6569 3820 4105 6415 6468 7143 6359 4381 6352 2799 6421 5464 4375 6306 7300 5749 5366 7463 6886 6854 6264 6007 6148 5216 4191 5242 5436 5061 3986 6976 4831 5159 5569 4240 5954 6828 5868 4190 4193 7406 5079 4553 6639 4283 6303 4278 6686 6897 5381 5028 6163 4951 6587 4564 5263 7171 4093 4330 6657 5968 5923 5493 7061 4689 5242 3977 3567 5860 5241 5525 4061 3671 5245 6044 4316 2945 6633 5085 3294 6305 4792 4388 5498 5091 3239 3926 3400 5922 3697 5062 5096 2994 4048 5699 2942 3617 5378 3921 2568 5744 2546 3603 2629 5983 3017 3202 4547 4886 2168 2779 1579 3727 3802 3518 4571 2102 3225 2338 2878 2123 2660 2535 4322 1842 2281 3678 3111 2326 2055 1077 879 1991 1332 3009 1754 1858 767 1300 1163 1363 925 1451 596 481 2816 592 369 1153 375 373

Tree=0
num_leaves=39
num_cat=0
split_feature=107 16 107 11 21 51 28 51 11 33 81 22 27 22 11 8 153 22 8 22 131 81 56 28 6 11 26 8 8 9 72 16 81 116 125 27 11 95
split_gain=7844.23 3716.67 1317.74 619.573 279.019 181.661 234.956 139.672 138.877 101.711 98.7286 87.7546 110.349 46.6307 33.9351 27.1635 24.2506 21.9838 20.8384 20.1693 18.2887 18.2712 16.173 14.2185 12.1213 11.5775 10.7191 6.55384 5.9645 5.43001 3.98605 3.27411 2.63509 1.23289 1.08085 0.984169 0.905734 0.32902
threshold=13.500000000000002 -165.61999999999998 40.500000000000007 85.310000000000016 1.0000000180025095e-35 1.0000000180025095e-35 8544.1900000000005 1.0000000180025095e-35 334.10500000000008 5338.4400000000014 15227.880000000001 25223.215 1.0000000180025095e-35 1980.4350000000002 269.54500000000007 20161.635000000006 2293.2150000000006 42395.455000000009 14198.380000000003 1.0000000180025095e-35 369.49500000000006 20141.080000000005 69.980000000000018 1733.4950000000001 42.500000000000007 269.54500000000007 1.0000000180025095e-35 18056.105000000003 25115.155000000002 310.84500000000008 2067.9650000000006 -917.66499999999985 20141.080000000005 776.98000000000013 -1.0000000180025095e-35 2.5000000000000004 1286.5000000000002 2.5000000000000004
decision_type=2 2 2 2 2 2 2 2 2 2 2 2 2 2 2 2 10 2 2 2 10 2 2 2 2 2 2 2 2 2 2 2 2 10 8 2 2 2
left_child=1 4 3 10 -1 6 8 11 9 21 19 12 -5 18 24 16 -14 23 20 -2 22 -4 -8 -10 -3 33 -7 -13 -19 36 -28 -22 34 -15 -20 -29 -27 -31
right_child=2 14 5 7 -6 26 13 -9 17 -11 -12 27 15 25 -16 -17 -18 28 32 -21 31 -23 -24 -25 -26 29 30 35 -30 37 -32 -33 -34 -35 -36 -37 -38 -39
leaf_value=-3.7942566764875107 -4.0811373766060344 -4.2007648799686113 -4.1277638118428506 -4.115373242894206 -4.0021213453058477 -4.2258552850593238 -4.1917150616784467 -4.2346814866873768 -4.1871316961834912 -4.219698832550753 -4.1885451363225634 -4.2064047979449848 -4.1664052698361784 -4.217840980402582 -4.2136732292679664 -4.219167844036483 -4.2115660981022929 -4.219698832550753 -4.2254482627139547 -4.1591845006712074 -4.2295335191704124 -4.186536525410685 -4.219698832550753 -4.219698832550753 -4.1479888325690482 -4.219698832550753 -4.2426728550876893 -4.219698832550753 -4.2323747888617067 -4.2388590914542315 -4.2218653653358782 -4.2187323589459798 -4.2340115178376285 -4.2257136062450664 -4.219698832550753 -4.2264868183758315 -4.2259041140744884 -4.2231649453042701
leaf_weight=24.161866765469313 34.429232134483755 13.36613906174898 18.307040894404054 13.137658052146433 29.002808156423271 43.182910814881325 27.003599322400987 51.036945519968867 13.037697610445322 15.793749788776038 16.522033006884158 17.878639001399279 24.71878922637552 16.336392186582092 15.151146949268876 22.234058246947825 19.106724428012967 20.249129476025701 16.47919281758368 18.564082030206919 20.491890548728406 20.43477029632777 13.294738746248184 14.794145371764897 23.762024998664856 12.937737168744208 1163.8822629153728 16.479192817583684 38.441929865628481 408.75252617895603 16.450632691383362 13.251898556947706 42.797349111177027 14.165822595357893 16.464912754483521 13.594620071351526 13.037697610445319 17.707278244197369
leaf_count=1692 2411 936 1282 920 2031 3024 1891 3574 913 1106 1157 1252 1731 1144 1061 1557 1338 1418 1154 1300 1435 1431 931 1036 1664 906 81504 1154 2692 28624 1152 928 2997 992 1153 952 913 1240
internal_value=-4.2197 -4.0185 -4.2295 -4.17708 -3.88239 -4.23612 -4.22666 -4.20269 -4.1989 -4.16995 -4.11729 -4.18907 -4.17387 -4.23309 -4.17301 -4.19224 -4.18176 -4.21961 -4.22051 -4.10054 -4.21222 -4.15045 -4.20146 -4.20224 -4.16094 -4.23675 -4.24198 -4.2176 -4.22695 -4.23774 -4.24247 -4.22316 -4.22976 -4.2197 -4.22073 -4.2223 -4.22172 -4.23847
internal_weight=2350.44 105.444 2245 247.702 53.1647 1997.3 773.779 178.187 141.058 54.5356 69.5153 127.15 79.1972 632.721 52.2793 66.0596 43.8255 86.5229 149.784 52.9933 74.0421 38.7418 40.2983 27.8318 37.1282 482.937 1223.52 47.9525 58.6911 452.435 1180.33 33.7438 75.7415 30.5022 32.9441 30.0738 25.9754 426.46
internal_count=164596 7384 157212 17346 3723 139866 54186 12478 9878 3819 4868 8904 5546 44308 3661 4626 3069 6059 10489 3711 5185 2713 2822 1949 2600 33819 85680 3358 4110 31683 82656 2363 5304 2136 2307 2106 1819 29864
is_linear=0
shrinkage=1


Tree=1
num_leaves=39
num_cat=0
split_feature=18 27 16 11 51 137 125 10 11 32 51 27 10 22 147 22 11 24 138 72 125 31 24 31 56 16 147 134 56 153 82 84 32 22 73 8 27 22
split_gain=5766.53 2926.12 866.446 523.651 418.835 296.002 281.061 204.672 157.155 122.385 117.893 127.333 70.7452 65.9427 51.9409 39.968 29.9143 24.5336 21.1505 14.8957 13.8316 13.5738 11.1034 10.2501 10.1301 7.66326 5.46457 4.57865 4.52697 3.45868 3.29832 3.09453 3.08402 3.99526 2.74165 1.95621 1.08896 0.22565
threshold=401.56000000000006 1.0000000180025095e-35 -165.61999999999998 206.68500000000003 1.0000000180025095e-35 5130.9400000000014 -41076.614999999998 337.19500000000005 145.17500000000004 1.0000000180025095e-35 1.0000000180025095e-35 2.5000000000000004 337.19500000000005 33325.420000000006 -11168.734999999999 4593.2450000000008 1286.5000000000002 1.0000000180025095e-35 9717.2550000000028 1947.3850000000002 -9049.6199999999972 882.97500000000014 1.0000000180025095e-35 1.0000000180025095e-35 69.980000000000018 -1875.9149999999997 -36970.879999999997 164689.20000000004 583.18000000000018 369.49500000000006 1.0000000180025095e-35 1.0000000180025095e-35 1.0000000180025095e-35 64180.445000000007 4.5000000000000009 7536.6050000000005 25.500000000000004 170451.94000000003
decision_type=2 2 2 2 2 10 10 2 2 2 2 2 2 2 10 2 2 2 10 2 8 2 2 2 2 2 10 8 2 10 2 2 2 2 2 2 2 2
left_child=1 2 6 4 5 9 7 -1 12 15 11 13 14 27 -3 -2 18 20 24 -12 -10 22 -7 26 -13 -22 36 -5 30 31 -15 -6 33 -28 -18 -23 -20 -30
right_child=3 8 -4 10 29 21 -8 -9 17 -11 19 16 -14 28 -16 -17 34 -19 23 -21 25 35 -24 -25 -26 -27 32 -29 37 -31 -32 -33 -34 -35 -36 -37 -38 -39
leaf_value=0.29794023185300733 0.11771462882228002 0.027271041518668358 0.043769412766436949 0.012236916565503662 0 0.024456655198559201 0.11087702860909115 0.13334037015136757 0 0.018297598114254271 -0.023010425078160986 0.019952736285760355 0.013575981312897462 0.010272864097132128 0.10545102744270547 0.046354688915732474 -0.0046913686713228641 -0.0082335599618828786 -0.012458838940332425 0 0.033886507290486499 0 0 -0.015874903302439503 -0.0017409671649080594 0.003490560669860632 0.0050204469721945137 0.046816656768752039 0 -0.019954847795482282 0 -0.009913835025753031 -0.0098610198049715863 -0.0060648836395842389 -0.020816402182223005 -0.0090694856140764689 0 -0.010916939438693528
leaf_weight=48.662868277169764 33.221465175971389 15.713336312212048 20.542204665020108 16.523899774067104 13.129511855542658 28.235719158314168 20.549731792882085 19.055390426889062 13.861293798312543 21.538416435010731 1107.8800758076832 17.328013976104561 18.976393925026059 21.166852619498968 22.147267442196608 21.01547191105783 25.128583221696317 25.499054328538477 45.652687368914485 16.606193458661437 22.621645092964169 14.035904590040447 18.221526480279863 125.60175433941185 13.948582786135374 16.877455914393071 58.394705325365067 23.237389837391675 14.159969001077117 67.834841714240611 21.825934319756925 33.798976311460137 13.977068426087497 19.44410712365061 271.91605553869158 13.058158335275946 13.906815757043658 13.594938250258563
leaf_count=2623 2148 1050 1375 1118 912 1910 1157 1128 971 1421 79272 1202 1254 1476 1402 1394 1777 1804 3226 1167 1557 973 1255 8898 973 1166 4102 1566 993 4843 1531 2388 986 1378 19348 909 983 960
internal_value=0 0.110919 0.202784 -0.0130609 0.0186178 0.0451505 0.235197 0.263157 0.0328081 0.0777882 -0.0176891 -0.00965169 0.062498 0.0135925 0.0810643 0.0968625 -0.0141125 0.00825037 -0.0080979 -0.0226686 0.0177909 0.00798956 0.0158833 -0.0104075 0.00853364 0.0246025 -0.00496771 0.0370716 0 -0.0154794 0.00388318 -0.00608547 -7.45196e-05 0.000938357 -0.019847 -0.00283534 -0.0105434 -0.00787264
internal_weight=2348.89 244.507 108.81 2104.38 264.09 149.327 88.268 67.7183 135.696 75.7754 1840.29 715.807 56.837 110.509 37.8606 54.2369 605.298 78.8594 308.254 1124.49 53.3604 73.5513 46.4572 276.977 31.2766 39.4991 151.375 39.7613 70.7477 114.763 42.9928 46.9285 91.8159 77.8388 297.045 27.0941 59.5595 27.7549
internal_count=164596 15487 6283 149109 18153 10010 4908 3751 9204 4963 130956 50517 3706 7644 2452 3542 42873 5498 21748 80439 3694 5047 3165 19573 2175 2723 10675 2684 4960 8143 3007 3300 6466 5480 21125 1882 4209 1953
is_linear=0
shrinkage=0.0243464


Tree=2
num_leaves=34
num_cat=0
split_feature=107 22 107 11 11 27 51 28 51 22 137 28 11 51 116 28 73 149 8 8 56 8 72 138 27 73 7 4 116 147 8 11 22
split_gain=5741.58 1967.18 496.371 233.7 168.524 166.072 133.128 150.164 97.3324 86.7063 73.543 62.0471 41.3776 37.8862 27.9194 26.3463 22.8863 19.9043 18.6996 16.3809 13.6146 17.3987 11.729 9.42128 7.704 5.89261 5.2446 4.54291 3.04173 3.85952 2.73914 1.94155 0.513509
threshold=23.500000000000004 -2080.7399999999993 48.500000000000007 206.68500000000003 269.54500000000007 1.0000000180025095e-35 1.0000000180025095e-35 5376.1950000000006 1.0000000180025095e-35 12743.005000000001 5130.9400000000014 6976.7300000000005 768.17500000000007 1.0000000180025095e-35 1302.3850000000004 3655.8500000000008 7.5000000000000009 898.50000000000011 25115.155000000002 16038.460000000001 70.580000000000013 9059.4350000000013 2067.9650000000006 11576.105000000001 1.0000000180025095e-35 4.5000000000000009 1102.8400000000004 1.0000000180025095e-35 776.98000000000013 -27930.889999999996 16038.460000000001 537.35000000000014 4593.2450000000008
decision_type=2 2 2 2 2 2 2 2 2 2 10 2 2 2 8 2 2 8 2 2 2 2 2 10 2 2 2 2 8 10 2 2 2
left_child=1 5 3 8 10 -1 7 9 11 14 17 -2 16 15 -4 -5 20 -3 -11 26 21 -9 27 -18 -6 30 -17 -8 29 -25 -14 -21 -27
right_child=2 4 6 13 24 -7 22 12 -10 18 -12 -13 25 -15 -16 19 23 -19 -20 31 -22 -23 -24 28 -26 32 -28 -29 -30 -31 -32 -33 -34
leaf_value=0.21129255076876705 0.076395566735936296 0.033195012820901024 0.071258560529181114 0.028942807023424076 0.015516761449691668 0.091036244258461643 -0.022874095251814885 0.02584165359281719 0 0.014509034012184252 0.0075784304586736812 0.023536636028459665 0.00093345321312371312 -0.015615789405767393 0.016773698806471761 0 0.0027549890009187792 0.087133795189550139 -0.011834142045036813 0 -0.0067798420548386513 0 0 -0.010052119847862076 -0.00090675794439903934 -0.0091111688503895862 0.020824154626524528 -0.0032084278707120799 -0.015501870839541706 0 -0.0095966215938509073 -0.012461842374594068 -0.019769940629655893
leaf_weight=81.170787807554007 47.725704804994166 19.142404278740287 15.006524533964694 24.168691705912352 21.499209819361567 20.779241720214486 1109.448977779597 26.392450472339988 17.994339944794774 24.641447994858027 14.965074993669985 32.881699584424496 13.276240118779244 54.954705239273608 21.299563658423722 21.762519527226686 18.325222915969789 53.844208261929452 31.878095368854702 15.882851493544875 20.379308629781008 24.479355707764626 15.640386972576378 27.510060982778668 22.521111384965479 49.037529112771153 17.451946149580181 19.71558694075793 80.659026643261313 24.875902468338609 15.276248029433189 25.775576908141375 317.46990250051022
leaf_count=3458 2862 1199 947 1607 1464 1198 81096 1831 1238 1678 971 2172 940 3990 1364 1505 1266 3190 2238 1103 1433 1714 1097 1947 1563 3497 1203 1403 5750 1752 1088 1828 23004
internal_value=0 0.1134 -0.0127188 0.0184965 0.0479516 0.192122 -0.0171513 -0.00858435 0.0471611 0.0193126 0.0668348 0.05812 -0.0130274 0 0.046554 0.00859396 -0.00397458 0.0767178 0 0.00030567 0.00640925 0.0135163 -0.022337 -0.00950763 0.00579496 -0.0178002 0.011996 -0.0226266 -0.0119146 -0.00400299 -0.00231342 -0.00873033 -0.0187139
internal_weight=2347.83 233.922 2113.91 258.598 131.972 101.95 1855.31 710.507 98.6017 92.8256 87.9517 80.6074 617.681 159.996 36.3061 105.042 222.621 72.9866 56.5195 80.8729 71.2511 50.8718 1144.8 151.37 44.0203 395.06 39.2145 1129.16 133.045 52.386 28.5525 41.6584 366.507
internal_count=164596 13043 151553 17508 8387 4656 134045 50449 6272 6227 5360 5034 44222 11236 2311 7246 15693 4389 3916 5639 4978 3545 83596 10715 3027 28529 2708 82499 9449 3699 2028 2931 26501
is_linear=0
shrinkage=0.0243464


Tree=3
num_leaves=34
num_cat=0
split_feature=107 22 18 153 52 138 52 21 22 153 18 33 107 33 107 56 18 8 80 22 8 115 22 149 151 27 30 9 71 107 20 138 8
split_gain=4995.42 1332.51 549.511 221.487 156.925 184.89 146.832 125.501 107.756 105.342 79.3471 64.1507 63.539 53.9293 26.5213 23.9797 22.7471 17.2542 15.9888 8.36013 8.24739 6.49619 6.37915 5.56747 6.01363 4.13915 3.77 3.35841 2.42922 1.79553 1.4122 0.997261 0.729681
threshold=23.500000000000004 -2080.7399999999993 1497.6950000000002 768.31500000000017 1.0000000180025095e-35 9717.2550000000028 1.0000000180025095e-35 1.0000000180025095e-35 25223.215 568.90500000000009 17685.540000000005 13254.625000000002 88.500000000000014 9196.8800000000028 62.500000000000007 1372.4500000000003 401.56000000000006 25115.155000000002 1.0000000180025095e-35 1980.4350000000002 12388.855000000001 1.0000000180025095e-35 -1.0000000180025095e-35 4669.5000000000009 3.5000000000000004 4.5000000000000009 1.0000000180025095e-35 310.84500000000008 1.0000000180025095e-35 48.500000000000007 4421.3400000000011 35515.200000000004 20161.635000000006
decision_type=2 2 2 10 2 10 2 2 2 10 2 2 2 2 2 2 2 2 2 2 2 8 2 10 10 2 2 2 2 2 2 10 2
left_child=1 7 3 13 5 8 9 -1 11 10 -3 15 16 -2 20 32 18 21 -5 22 23 -10 31 24 -7 -22 -14 -21 -6 -19 -27 -16 -4
right_child=2 6 4 12 28 14 -8 -9 17 -11 -12 -13 26 -15 19 -17 -18 29 -20 27 25 -23 -24 -25 -26 30 -28 -29 -30 -31 -32 -33 -34
leaf_value=0.19582642308343481 0.077903542887750449 0.07914142347304659 0.065231398287094469 0.0406920943214861 -0.022745351734653859 0 -0.006160538556468133 0.11662453241857568 0 0.0055287360260541209 0.011507450289912605 -0.0031853407109602079 0 0.018320616998096527 0 0.0086154458782139644 0 0 0.0082765121710941542 -0.0019598240241061175 0 0.018349655034418225 0.0015422491912204564 -0.0049440904984085149 0.019109784767389885 -0.014082403132653175 -0.016014042967423779 -0.019084753661054384 -0.0084705475026885732 -0.014215288052438053 0 -0.013817100247005578 0.022497407610825578
leaf_weight=54.11885832529515 41.744321769103408 72.334221488796175 28.72773724142462 30.256631066091359 1102.6453741919249 18.835891372524202 23.483409441076219 67.676870759576559 24.927038973197341 24.300250429660082 17.609100749716163 15.136815126053987 23.672859057784081 20.943845280446112 15.797603221610187 15.097613942809401 22.131351720541716 13.71110455971211 27.844535295851529 20.552422867156565 13.536615966819225 15.861235869117079 20.29602094553411 13.174657632596789 15.517901360057293 37.213880505412817 35.207015433348715 378.36136818956584 34.950575931929052 40.077296665869653 12.845142118632792 33.981425983831286 14.613676991313694
leaf_count=1721 2483 4021 1757 1989 82375 1291 1601 2935 1700 1584 1181 977 1680 1297 1119 954 1517 944 1850 1470 948 1084 1441 916 1081 2645 2537 27794 2536 2883 927 2438 920
internal_value=0 0.0998996 -0.0125648 0.0250857 -0.016689 -0.00777483 0.0449808 0.157779 0.0141866 0.0561381 0.0679762 0.03553 0.00661815 0.0617455 -0.0143564 0.0466158 0.0206894 -0.00224752 0.0282349 -0.0169178 -0.00251276 0.00799145 -0.00631039 0.00372523 0.00967 -0.00850851 -0.0111599 -0.0184648 -0.0224211 -0.0116538 -0.0116536 -0.0111332 0.0559862
internal_weight=2347.18 259.523 2087.66 201.801 1885.86 748.265 137.727 121.796 168.153 114.244 89.9433 73.5758 139.112 62.6882 580.113 58.439 80.2325 94.5767 58.1012 468.989 111.124 40.7883 70.0751 47.5285 34.3538 63.5956 58.8799 398.914 1137.6 53.7884 50.059 49.779 43.3414
internal_count=164596 13043 151553 13353 138200 53289 8387 4656 11219 6786 5202 4608 9573 3780 42070 3631 5356 6611 3839 34262 7808 2784 4998 3288 2372 4520 4217 29264 84911 3827 3572 3557 2677
is_linear=0
shrinkage=0.0243464


Tree=4
num_leaves=35
num_cat=0
split_feature=107 16 18 28 51 28 52 22 11 33 33 112 107 33 153 8 107 8 116 10 72 55 81 8 153 22 12 134 10 73 107 10 22 9
split_gain=4402.9 969.682 527.44 212.472 162.522 184.105 136.334 107.655 83.6355 61.7799 60.881 60.573 59.4246 48.9085 31.2769 24.9166 19.8139 18.3629 16.247 12.1796 11.8449 10.1689 9.41215 8.28821 7.19959 6.58942 6.64784 5.19118 4.32427 3.75229 2.901 2.1775 1.43622 1.32579
threshold=23.500000000000004 -1484.6449999999998 1497.6950000000002 5376.1950000000006 1.0000000180025095e-35 10111.770000000002 1.0000000180025095e-35 18750.185000000005 269.54500000000007 13254.625000000002 9196.8800000000028 1.0000000180025095e-35 88.500000000000014 13254.625000000002 369.49500000000006 31441.060000000005 62.500000000000007 25115.155000000002 1889.4750000000001 -425.10499999999996 1504.5850000000003 1.0000000180025095e-35 11321.365000000003 12388.855000000001 1.0000000180025095e-35 4593.2450000000008 7.5000000000000009 164689.20000000004 -1261.4149999999997 6.5000000000000009 48.500000000000007 -54.359999999999992 -2080.7399999999993 310.84500000000008
decision_type=2 2 2 2 2 2 2 2 2 2 2 10 2 2 10 2 2 2 10 2 2 2 2 2 10 2 2 8 2 2 2 2 2 2
left_child=1 11 3 10 5 7 8 9 13 18 -2 -1 15 14 -3 22 23 19 21 -9 -6 -4 -5 28 -10 26 32 -21 -7 -14 -19 -25 -18 -27
right_child=2 6 4 12 20 16 -8 17 24 -11 -12 -13 29 -15 -16 -17 25 30 -20 27 -22 -23 -24 31 -26 33 -28 -29 -30 -31 -32 -33 -34 -35
leaf_value=0.17146695622902028 0.078338725543939017 0.08430861352700883 0.0661460668952841 0.033636356121407231 -0.022722310936120309 -0.0013682506534172035 -0.0053031057518402695 -0.0052941353176759248 0.023799097929283603 -0.0016328967062296277 0.019409454381352706 0.10774381944334338 0 0.017393764513338097 0.027003771225942989 -0.0021461479980124476 -0.0055557776598353283 0 0.010131561704668548 0.00020827715217057672 0 0.022007438988758923 0.0066436550351720988 -0.012238092116347476 0 -0.002706075700056786 -0.014327332108872867 0.025209078451277789 0.010842750307025991 -0.014655536647987476 -0.014467246120107545 0 0.0027464006198688255 -0.019149043936718541
leaf_weight=50.036609678529203 39.407535552978516 59.748192996717989 26.784516888670623 41.910905279219151 1106.2582263760269 25.135039583779871 23.515306918881834 15.991059144958852 15.617554317228494 17.009855553507805 24.730034990236163 82.46713430993259 17.750514176674187 18.560010648332536 17.678340319544077 16.421039990149438 16.279512008652091 14.993582816794513 14.959334874525664 17.676846892572939 19.244066467508674 18.968482783064246 24.079315800219774 44.796324894763529 16.489965921267867 18.0683054914698 40.566522595472634 16.043170735239983 20.072104188613594 42.026057005859911 43.561844150535762 14.63817749917507 25.439338269643486 339.25420048460364
leaf_count=1484 2114 2923 1565 2701 84472 1751 1601 1102 1000 1111 1491 2941 1264 943 1045 1109 1172 1028 934 1188 1375 1150 1624 3229 1106 1297 2943 1068 1368 3050 3168 1044 1826 25409
internal_value=0 0.0891699 -0.0124112 0.0240033 -0.0165542 -0.00735772 0.0443474 0.0130928 0.0540562 0.0342502 0.0595195 0.136906 0.00612445 0.0654684 0.0743884 0.0195414 -0.0145634 -0.00195138 0.0452248 0.00754093 -0.0223895 0.0530394 0.0260914 -0.00365093 0.0137998 -0.0168914 -0.00777815 0.016031 0.00259386 -0.0109662 -0.0114784 -0.00974356 0 -0.018618
internal_weight=2346.18 284.113 2062.07 206.325 1855.74 730.238 151.609 185.989 128.094 77.7222 64.1376 132.504 142.188 95.9865 77.4265 82.4113 544.25 108.267 60.7123 49.7111 1125.5 45.753 65.9902 104.642 32.1075 439.608 82.2854 33.72 45.2071 59.7766 58.5554 59.4345 41.7189 357.323
internal_count=164596 13043 151553 13353 138200 52353 8618 12314 7017 4760 3605 4425 9748 4911 3968 5434 40039 7554 3649 3358 85847 2715 4325 7392 2106 32647 5941 2256 3119 4314 4196 4273 2998 26706
is_linear=0
shrinkage=0.0243464


Tree=5
num_leaves=34
num_cat=0
split_feature=18 27 52 137 16 8 10 137 10 125 55 81 22 22 31 72 22 137 8 25 125 22 147 73 73 16 27 8 95 81 5 22 73
split_gain=3663.01 1212.56 268.816 336.343 184.935 134.744 113.814 86.0592 55.8805 54.6614 53.6916 39.9256 38.3872 30.5934 27.4649 19.3649 19.216 16.8075 15.5221 12.7052 10.1455 9.76453 9.01932 6.11572 3.62988 2.27571 2.27051 1.8367 1.27301 0.632704 0.619356 0.390721 0.356456
threshold=1497.6950000000002 1.5000000000000002 1.0000000180025095e-35 6728.5200000000013 -165.61999999999998 25115.155000000002 610.36500000000012 8340.3850000000002 -425.10499999999996 -41076.614999999998 1.0000000180025095e-35 1.0000000180025095e-35 4593.2450000000008 33325.420000000006 882.97500000000014 1504.5850000000003 25223.215 25182.090000000004 12388.855000000001 12106.590000000002 -1.0000000180025095e-35 -2080.7399999999993 -27930.889999999996 4.5000000000000009 4.5000000000000009 -2333.6799999999998 11.500000000000002 12388.855000000001 1.0000000180025095e-35 20141.080000000005 32.500000000000007 8236.6400000000012 1.0000000180025095e-35
decision_type=2 2 2 10 2 2 2 10 2 10 2 2 2 2 2 2 2 10 2 2 8 2 10 2 2 2 2 2 2 2 2 2 2
left_child=1 4 3 5 6 8 9 -3 -2 -1 11 21 -10 14 17 32 -7 18 -5 29 -13 -9 26 27 -18 -22 -19 -15 -16 -14 -25 -20 -4
right_child=2 7 15 13 -6 16 -8 10 12 -11 -12 20 19 23 28 -17 24 22 31 -21 25 -23 -24 30 -26 -27 -28 -29 -30 -31 -32 -33 -34
leaf_value=0.13119502423880239 0.0016896344350605652 0.049320559445365446 -0.0039122563587523519 0.020445753454912449 0.044142508812039793 0.013880417475621003 0.054725493361297402 0.039255651487640694 0.069857450068509491 0.067311055058598329 -0.014201799767537649 -0.0075580351522508814 0.043732433245310544 0 -0.015672683129547386 0 0 0 -0.0030448572151853741 0.0037483958788401862 0 0.0078843822793787984 0.0064110045458226758 -0.0032647988229694172 -0.012599672581097508 0.017468920597968628 -0.013610071951348324 -0.008020877522987746 0 0.013373013481266495 -0.019483458118086106 0.00033252552443698008 -0.02268020199696438
leaf_weight=128.67814607080072 24.718835435807705 36.394959921948612 14.669720418751238 33.796639717184007 41.9135015392676 31.352477118372917 34.186165176331997 35.174899987876415 34.555120280943811 31.027912149205804 39.990750716999173 28.58717851433903 27.643347058445215 14.224160140380262 101.26332209724933 20.547181895002723 18.457548574544489 14.112686761654912 20.647781825624406 17.526997160166502 14.587197644636037 20.010098746046424 13.347860274836419 17.525613295845687 38.206883523613214 13.964968705549834 46.480739884078503 19.294955904595554 12.755347915925084 16.533484852872789 291.32602287642658 16.611896301619709 1074.3873473610729
leaf_count=3921 1545 1943 1065 2260 2255 1807 1478 2055 1798 1117 2834 2014 1617 1007 7451 1459 1267 1011 1423 1138 968 1296 940 1330 2763 932 3413 1405 940 1037 22116 1186 83805
internal_value=0 0.0643962 -0.0143079 -0.00348202 0.100832 0.0226873 0.111448 0.0172067 0.0389305 0.121347 0.00784354 0.0167237 0.0470978 -0.0128236 -0.00581834 -0.0220882 0 0.000654755 0.00939698 0.0293747 0.000447743 0.0307957 -0.00659255 -0.0177205 -0.00866613 0.0112892 -0.0111359 -0.003324 -0.0145848 0.036414 -0.0189185 0 -0.022529
internal_weight=2344.5 424.516 1919.99 810.382 235.806 208.995 193.892 188.71 120.978 159.706 152.315 112.324 96.2589 601.387 259.016 1109.6 88.0169 144.998 71.0563 61.7038 57.1393 55.185 73.9413 342.371 56.6644 28.5522 60.5934 33.5191 114.019 44.1768 308.852 37.2597 1089.06
internal_count=164596 20813 143783 57454 8771 12972 6516 12042 7135 5038 10099 7265 5590 44482 18624 86329 5837 10233 4869 3792 3914 3351 5364 25858 4030 1900 4424 2412 8391 2654 23446 2609 84870
is_linear=0
shrinkage=0.0243464


Tree=6
num_leaves=35
num_cat=0
split_feature=107 18 18 27 51 138 52 137 149 18 11 107 85 11 56 31 12 33 31 64 11 81 147 138 81 56 142 30 17 138 147 137 95 138
split_gain=3637.36 803.266 264.777 135.825 113.827 114.159 91.0687 85.9169 73.9753 48.2308 47.6779 34.1973 31.8122 22.2063 16.6776 13.4934 10.8717 10.5975 10.9273 8.71662 8.65419 7.13455 6.79943 4.97545 4.36596 4.585 4.31179 3.53559 3.01717 8.25808 2.97564 2.14411 1.51524 0.207754
threshold=32.500000000000007 1497.6950000000002 1497.6950000000002 1.5000000000000002 1.0000000180025095e-35 9717.2550000000028 1.0000000180025095e-35 8340.3850000000002 542.50000000000011 9297.1200000000008 269.54500000000007 88.500000000000014 6146.5200000000013 1286.5000000000002 3854.4650000000006 882.97500000000014 8.5000000000000018 5338.4400000000014 882.97500000000014 7317.6550000000016 1590.4800000000002 2347.1700000000005 -12895.939999999999 32244.840000000004 59400.130000000012 1372.4500000000003 182988.00000000003 1.0000000180025095e-35 3.5000000000000004 11576.105000000001 -33714.884999999995 58097.610000000008 1.0000000180025095e-35 7834.8500000000013
decision_type=2 2 2 2 2 10 2 10 8 2 2 2 2 2 2 2 2 2 2 2 2 2 8 10 2 2 8 2 2 10 10 10 2 8
left_child=1 3 7 8 5 9 10 12 -1 -4 33 17 -2 15 19 16 23 18 -9 20 -11 -10 -12 24 25 -7 -24 -13 -6 -30 31 -25 -17 -3
right_child=2 6 4 -5 28 13 -8 11 21 14 22 27 -14 -15 -16 32 -18 -19 -20 -21 -22 -23 26 30 -26 -27 -28 -29 29 -31 -32 -33 -34 -35
leaf_value=0.046534284457828812 0.050247814911270818 0.050513516863487179 0.031538531790193142 0.044731726518410307 -0.022662829655713028 0.013565780239060929 -0.012095489977898914 0.027438336803275697 0.11148225299295125 0.018618978026815995 0 0 0.0035107676663333667 -0.019984894209510141 -0.012789592136896845 -0.016175093446316121 -0.015105786044142163 0 0 -0.0017949391803066738 0 0.062924534673799506 0 -0.011874090070964913 -0.00096936625725992066 0 0.020159857934688059 -0.015946096177167194 0.0019067856774930519 -0.01599604475490523 0 0 0 0.021488739292759483
leaf_weight=30.328184938058257 36.208154094405472 41.228111447766423 37.967728549614549 51.639912923797965 1020.0712804971263 32.352972539141774 36.528142858296633 29.639699924737215 155.71376385819167 36.499263786710799 15.429722586646674 23.92366392351687 17.658085226081312 250.59761261194944 32.717883968725801 107.59489576984197 31.51423348672688 18.032072770409286 20.205079164355993 24.607800610363483 14.112283693626521 31.135545479133725 15.499598748981951 28.239208605140448 23.634739558212459 12.898266631178556 23.721535271033645 34.939764915965497 11.741208566352723 29.628616226837039 15.33403807133436 14.08044104464352 12.723732204176484 24.467705368064344
leaf_count=1086 1845 2029 2208 2626 81329 2263 2687 1887 4433 2332 1064 1702 978 19401 2310 8116 2331 1172 1325 1693 1012 1170 1008 2099 1725 924 1523 2589 919 2329 1105 1046 947 1383
internal_value=0 0.0640641 -0.0142874 0.0894367 -0.0172299 -0.00909255 0.0188349 0.0132469 0.098619 0.00939575 0.0290682 0.00120293 0.0378783 -0.0144016 0 -0.00882587 -0.00321818 0.013249 0.0187271 0.00698152 0.0127844 0.105403 0.00895989 0 0.004421 0.00899077 0.0142108 -0.0111512 -0.0222607 -0.00913024 -0.00496659 -0.00841584 -0.0150882 0.0429432
internal_weight=2342.61 425.692 1916.92 268.817 1736.32 674.875 156.875 180.607 217.177 145.905 120.347 126.74 53.8662 528.97 107.937 278.373 158.054 67.8769 49.8448 75.2193 50.6115 186.849 54.6509 126.54 68.886 45.2512 39.2211 58.8634 1061.44 41.3698 57.6537 42.3196 120.319 65.6958
internal_count=164596 19009 145587 9315 134089 49512 9694 11498 6689 9555 7007 8675 2823 39957 7347 20556 11493 4384 3212 5037 3344 5603 3595 9162 4912 3187 2531 4291 84577 3248 4250 3145 9063 3412
is_linear=0
shrinkage=0.0243464


Tree=7
num_leaves=39
num_cat=0
split_feature=107 16 51 11 52 11 21 33 137 33 153 27 137 8 107 56 149 118 55 8 72 27 4 153 5 11 7 153 140 11 138 81 116 16 11 107 12 140
split_gain=3321 673.58 238.65 228.946 163.371 102.773 100.403 96.0512 83.5904 58.9705 54.4809 53.299 29.3185 28.5449 24.4714 23.7217 21.0577 18.5772 17.6046 15.7784 13.5063 13.278 9.88961 9.52984 8.68192 8.15297 5.83842 4.48218 4.18108 2.75885 2.04816 1.95059 1.61119 1.45097 1.33445 1.26485 0.681711 0.167297
threshold=32.500000000000007 -1484.6449999999998 1.0000000180025095e-35 269.54500000000007 1.0000000180025095e-35 269.54500000000007 1.0000000180025095e-35 5338.4400000000014 8340.3850000000002 13254.625000000002 768.31500000000017 3.5000000000000004 6728.5200000000013 14198.380000000003 69.500000000000014 3854.4650000000006 898.50000000000011 694.40500000000009 1.0000000180025095e-35 35575.410000000011 1947.3850000000002 2.5000000000000004 1.0000000180025095e-35 967.72500000000014 34.500000000000007 687.20500000000015 1102.8400000000004 2551.2750000000001 1000.2750000000001 768.17500000000007 1793.3550000000002 20141.080000000005 776.98000000000013 -7585.2849999999989 145.17500000000004 132.50000000000003 7.5000000000000009 11350.540000000003
decision_type=2 2 2 2 2 2 2 2 10 2 10 2 10 2 2 2 8 10 2 2 2 2 2 8 2 2 2 10 10 2 8 2 10 2 2 2 2 10
left_child=1 6 3 7 5 9 -1 8 31 10 16 15 -8 14 26 19 -3 18 -10 23 22 25 30 29 35 -7 37 32 -9 -5 -4 -2 -26 -15 -6 -16 -21 -13
right_child=2 4 20 11 34 21 12 28 17 -11 -12 13 -14 33 24 -17 -18 -19 -20 36 -22 -23 -24 -25 27 -27 -28 -29 -30 -31 -32 -33 -34 -35 -36 -37 -38 -39
leaf_value=0.11587706863350002 0.063012062196403221 0.028447396456177068 -0.014304972247128948 0.038191832056344681 0 0.031319281706409595 0.078256292533130531 0 0.027614491457737519 0.010951436602603035 0.016613994311341009 -0.0015041385074439173 0.032310467945744686 -0.0024746182483941785 0.0060545998498372786 -0.010828095230227439 0.074717285553000806 -0.0062826027483010808 0 0.00078966050137894018 0 -0.00052221651828867916 -0.0001064255275069659 0 0.0012371828290938705 0.0019517284513755413 0.016374780322339928 -0.015734540105370735 -0.014301669428640463 0.0070809214860217727 -0.023051062248584744 0.027311943382361804 -0.0074112759848439539 -0.019086058104089434 -0.014036585017320538 -0.0027266495579333014 -0.0047911884366334178 0.0016913486094479349
leaf_weight=87.4137954544276 33.390257924795151 22.044186837039888 104.0521119562909 14.977190966717901 12.725876598618923 15.136745014227925 88.180205697193742 20.493127482011914 33.251436807215214 26.663048522546887 24.889626887626946 13.763305332511665 27.095675623044372 17.845781362615526 12.765455933287742 31.028699014335871 73.376084242016077 18.396346813999116 18.030701744370162 13.361664577387275 18.457021720707417 25.10566124971956 20.674819354899228 15.008545330725608 14.015185127966108 19.88195507414639 19.783603933639824 104.88809958752245 23.990558353252709 14.5012493096292 937.77779123838991 24.542346309870481 12.844301862642167 309.78689665999264 27.960693347267807 13.668146416544912 13.042947733774779 16.462417645379901
leaf_count=1711 1596 969 8314 929 794 907 2650 1211 2165 1235 1402 961 1262 1325 942 2210 3001 1303 1243 911 1316 1697 1509 1002 1017 1261 1367 8067 1635 967 76267 1342 976 23904 2120 1039 922 1147
internal_value=0 0.0591359 -0.0141408 -0.00397416 0.0308407 0.0395827 0.0919781 0.020452 0.0310982 0.0505203 0.0578853 -0.0108004 0.0697208 -0.0138992 -0.00598867 0.00451109 0.0665806 0.0103571 0.0180489 0.0127042 -0.021627 0.00986721 -0.0219847 0.0210162 -0.0108717 0.0189982 0.00737155 -0.0133821 -0.00819819 0.0284161 -0.0223268 0.0522013 -0.000290243 -0.0185065 -0.0111066 0 0 0
internal_weight=2341.27 450.474 1890.8 809.838 247.784 207.097 202.69 172.095 127.611 146.973 120.31 637.743 115.276 535.823 208.191 101.92 95.4203 69.6785 51.2821 70.8916 1080.96 60.1244 1062.5 44.487 158.181 35.0187 50.0093 131.748 44.4837 29.4784 1041.83 57.9326 26.8595 327.633 40.6866 26.4336 26.4046 30.2257
internal_count=164596 19009 145587 58181 13386 10472 5623 10495 7649 6607 5372 47686 3912 40745 15516 6941 3970 4711 3408 4731 87406 3865 86090 2898 12041 2168 3475 10060 2846 1896 84581 2938 1993 25229 2914 1981 1833 2108
is_linear=0
shrinkage=0.0243464


Tree=8
num_leaves=36
num_cat=0
split_feature=28 51 22 11 51 10 153 51 16 11 8 55 131 16 149 73 8 81 22 9 73 56 137 24 81 28 81 5 137 74 9 81 72 73 11
split_gain=2212.22 1132.44 492.448 340.563 206.497 69.2594 68.207 66.1738 50.922 38.3022 36.7612 32.1707 30.2568 25.7336 18.5118 16.6897 15.693 12.2452 9.49168 8.70114 7.1316 6.45832 5.32155 5.12403 4.67015 4.37703 4.17601 4.11408 2.48826 1.36104 1.32178 1.17888 0.8737 0.866304 0.709841
threshold=1733.4950000000001 1.0000000180025095e-35 1980.4350000000002 269.54500000000007 1.0000000180025095e-35 610.36500000000012 768.31500000000017 1.0000000180025095e-35 -235.09999999999999 768.17500000000007 28023.305000000004 1.0000000180025095e-35 217.00500000000002 -7585.2849999999989 898.50000000000011 7.5000000000000009 22528.370000000003 20141.080000000005 4593.2450000000008 1164.9150000000002 7.5000000000000009 1372.4500000000003 20703.180000000004 2.5000000000000004 11321.365000000003 11672.170000000002 4833.3450000000012 59.500000000000007 5130.9400000000014 2263.3050000000007 911.2650000000001 11321.365000000003 2067.9650000000006 4.5000000000000009 85.310000000000016
decision_type=2 2 2 2 2 2 10 2 2 2 2 2 10 2 8 2 2 2 2 2 2 2 10 2 2 2 2 2 10 2 2 2 2 2 2
left_child=1 2 5 4 6 8 20 9 -1 15 14 12 16 -3 -4 21 -8 -16 26 34 -2 27 31 -12 -14 -13 -11 29 -6 30 -5 -17 -9 -20 -15
right_child=3 13 10 7 28 -7 11 32 -10 18 23 25 24 19 17 22 -18 -19 33 -21 -22 -23 -24 -25 -26 -27 -28 -29 -30 -31 -32 -33 -34 -35 -36
leaf_value=0.093513491136921617 0.053312128343330885 0.016084851015501334 0.0017688726935735713 0.007481287678676795 0 0.040228486303721604 0.034090343963006871 -0.023206283692224775 0.052030131747926811 0.00088938138302054796 0.00740836367419057 0.002279890277322253 0.0080472413521456339 -0.002426854098968899 0.045924593962706255 0.0019553147740164604 0.001272307857648244 0.010484784293006599 -0.0069173188785986613 0 0.017826058615487937 -0.0054645598348611419 -0.013239753004430314 -0.0077276839985067616 -0.0087177208153577865 -0.010478996430588727 -0.0092145723407470494 0 -0.020460087799651312 0.019204187120205388 0 -0.0040134672095245546 -0.0035519520833091974 -0.018752291725042051 -0.016790763984778235
leaf_weight=193.37229797523469 41.448284006677568 12.748513842932878 18.162839765660465 19.555474268272519 12.183050123043357 42.221753126010299 55.959268112666905 824.67746248003095 52.625213745050132 19.942541384138167 29.39779164083302 13.275615200400351 15.413843149319293 19.925558853894472 35.880819074809551 14.43117006216198 17.67931248806417 19.586630057543516 37.020997660234571 12.314836312085388 20.052294630557299 16.180074189789593 68.292636031284928 16.001130530610681 15.722949348390101 25.03578869625926 41.56929247546941 20.601273608393967 82.923537739552557 17.130225024186075 14.174075096845625 35.952395979315042 14.349152660928665 317.2779888631776 125.91760561522096
leaf_count=4594 1926 755 1008 1290 926 1564 3132 68753 2290 1357 1745 808 934 1319 1686 1004 1067 1159 2707 894 1072 1160 5163 1117 1098 1788 3106 1375 6692 1145 948 2613 1033 25183 10185
internal_value=2.85989e-06 0.0411948 0.0631237 -0.0135328 0.00980127 0.0802818 0.0236418 -0.018397 0.0860105 -0.0119285 0.0195268 0.0128244 0.0197773 -0.010775 0.0297391 -0.00271687 0.0279031 0.0365682 -0.0162042 -0.0138707 0.045008 0.00454635 -0.00881999 0 0 -0.00404472 -0.00465297 0.00823152 -0.0187705 0.011728 0.00377789 -0.00055787 -0.0230006 -0.0178712 -0.0155756
internal_weight=2339 578.155 407.248 1760.85 299.694 288.219 204.587 1461.15 245.998 622.128 119.029 143.087 104.775 170.907 73.6303 206.317 73.6386 55.4674 415.811 158.158 61.5006 87.6411 118.676 45.3989 31.1368 38.3114 61.5118 71.461 95.1066 50.8598 33.7295 50.3836 839.027 354.299 145.843
internal_count=164596 28316 15163 136280 19443 8448 11825 116837 6884 47051 6715 8827 6231 13153 3853 14698 4199 2845 32353 12398 2998 5918 8780 2862 2032 2596 4463 4758 7618 3383 2238 3617 69786 27890 11504
is_linear=0
shrinkage=0.0243464


Tree=9
num_leaves=36
num_cat=0
split_feature=107 22 18 28 52 28 52 28 11 8 10 107 11 8 22 33 10 72 138 131 116 33 149 111 58 30 10 64 22 147 28 138 22 149 16
split_gain=2820.74 490.152 248.425 117.627 107.795 109.808 104.192 70.2206 52.4126 45.1311 38.4143 37.6089 26.2932 19.3464 19.2853 17.6434 14.7288 11.306 10.4783 8.38993 8.0247 6.97555 7.96874 6.00641 6.00596 5.19596 5.00324 3.8392 3.44603 3.16154 3.03335 2.7373 2.61042 0.458433 0.215832
threshold=32.500000000000007 -1.0000000180025095e-35 1497.6950000000002 6976.7300000000005 1.0000000180025095e-35 5376.1950000000006 1.0000000180025095e-35 1733.4950000000001 269.54500000000007 31441.060000000005 337.19500000000005 88.500000000000014 1286.5000000000002 12388.855000000001 12743.005000000001 5338.4400000000014 -940.04499999999985 1504.5850000000003 1.0000000180025095e-35 287.38500000000005 1889.4750000000001 9196.8800000000028 898.50000000000011 8.0000000000000018 6302.9850000000015 1.0000000180025095e-35 -54.359999999999992 1.0000000180025095e-35 64180.445000000007 -30628.354999999996 8544.1900000000005 39265.165000000001 1980.4350000000002 3621.5000000000005 -4566.5599999999995
decision_type=2 2 2 2 2 2 2 2 2 2 2 2 2 2 2 2 2 2 10 10 10 2 8 8 2 2 2 2 2 10 2 10 2 10 2
left_child=1 3 7 10 5 9 8 -2 21 14 23 15 13 16 -4 19 20 -6 -10 29 31 22 -3 -1 27 34 -16 -18 -11 -9 -15 -7 -22 -20 -13
right_child=2 6 4 -5 17 12 -8 11 18 28 -12 25 -14 30 26 -17 24 -19 33 -21 32 -23 -24 -25 -26 -27 -28 -29 -30 -31 -32 -33 -34 -35 -36
leaf_value=0.069909108302643824 0.038243254959017439 0.016269376609593603 0.037631041307089774 0.022802880378817038 -0.022408798313705965 0.00527780673193547 -0.011870300726630669 0.005784013758414165 0.020402286578363085 0 0.046709116565844845 -0.0027572989095269538 -0.019492887154429549 0 0 -0.0019431915048830017 0.00064073812148704239 0 -0.0021192100447139728 0.0014685249558456864 0 0.013766622200411666 0.048668849695143256 0.10084899920897961 0 -0.015942274699087447 0.014866221595511811 0.022353210563221908 -0.011911579742946038 0.033401336484108542 -0.014912902408269575 -0.0053750530174657436 -0.017017076786379894 0.0027907535342901026 0.00027813342453278492
leaf_weight=117.60140539333224 43.446597426198423 20.925470290705562 32.265878962352872 34.858902232721448 967.33304153941572 25.375516652129591 37.709471985697746 15.281185831874607 21.388716796413064 16.991378485225141 50.090049024671316 12.570108230225744 255.37966970447451 15.827256410382686 18.328876134008169 19.431380585767329 20.180287611670792 17.595623119734228 20.687969170510769 20.324450020678341 12.709704259410499 20.657350484281778 74.357153072021902 81.014711280353367 15.034168015234171 34.952408012934029 20.67247109208256 15.718678260222076 22.618593007326126 25.733145084232092 143.10971112921834 23.668978027999401 34.120460749603808 16.518547294661403 12.754523199051617
leaf_count=2825 2044 954 1636 1691 82352 1796 2801 963 1246 1055 1428 907 20761 1041 1202 1270 1352 1290 1352 1292 943 954 3142 1502 1087 2666 1298 1109 1692 1451 11016 1787 2672 1114 905
internal_value=2.50043e-06 0.0513436 -0.0138534 0.0722759 -0.0168614 -0.00902216 0.0221055 0.0124428 0.0300767 0.0123546 0.0783572 0.00299425 -0.0134714 -0.00794742 0.0237636 0.0140504 -0.000811679 -0.0220555 0.00837162 0.0203602 -0.00690057 0.0396038 0.043462 0.0847721 0.00860081 -0.0103103 0.00762644 0.0138138 -0.0063219 0.0266543 -0.0137758 0 -0.0136714 0 0
internal_weight=2337.23 495.81 1841.42 283.565 1656.93 672.002 212.245 184.494 174.535 110.877 248.706 141.047 561.124 305.745 71.2672 80.7702 146.808 984.929 58.5952 61.3388 95.8747 115.94 95.2826 198.616 50.9331 60.277 39.0013 35.899 39.61 41.0143 158.937 49.0445 46.8302 37.2065 25.3246
internal_count=164596 19009 145587 7446 134089 50447 11563 11498 8762 6883 5755 9454 43564 22803 4136 4976 10746 83642 3712 3706 7198 5050 4096 4327 3548 4478 2500 2461 2747 2414 12057 3583 3615 2466 1812
is_linear=0
shrinkage=0.0243464


Tree=10
num_leaves=35
num_cat=0
split_feature=107 22 51 28 52 22 11 33 11 21 33 31 153 33 8 28 28 10 8 10 153 6 6 107 22 125 10 151 107 25 22 5 138 113
split_gain=2607.99 415.429 231.897 206.166 120.831 83.7917 66.6435 65.9225 64.072 40.7512 32.7327 24.8417 23.1922 26.5725 15.5206 17.4799 14.8553 14.4528 13.3502 11.0464 8.42653 8.34349 9.21958 7.52561 7.43649 6.51921 5.35543 4.85931 4.19515 3.62539 3.17156 1.71789 0.889849 0.528772
threshold=32.500000000000007 -2080.7399999999993 1.0000000180025095e-35 5376.1950000000006 1.0000000180025095e-35 12743.005000000001 768.17500000000007 5338.4400000000014 269.54500000000007 1.0000000180025095e-35 5338.4400000000014 882.97500000000014 568.90500000000009 13254.625000000002 12388.855000000001 34300.405000000006 1733.4950000000001 337.19500000000005 25115.155000000002 -221.80499999999998 1.0000000180025095e-35 149.50000000000003 63.500000000000007 48.500000000000007 4593.2450000000008 -1.0000000180025095e-35 -54.359999999999992 1.0000000180025095e-35 48.500000000000007 2010.2550000000003 1980.4350000000002 47.500000000000007 43341.215000000004 -1018.4999999999999
decision_type=2 2 2 2 2 2 2 2 2 2 2 2 10 2 2 2 2 2 2 2 10 2 2 2 2 8 2 8 2 2 2 2 10 8
left_child=1 9 3 5 8 7 10 -2 12 -1 11 14 13 -3 15 21 27 -11 26 31 -10 22 -5 -13 25 -8 -7 -4 -29 -20 32 -16 -25 -22
right_child=2 4 16 6 -6 18 24 -9 20 17 -12 23 -14 -15 19 -17 -18 -19 29 -21 33 -23 -24 30 -26 -27 -28 28 -30 -31 -32 -33 -34 -35
leaf_value=0.084429910057311874 0.051481397411917901 0.05155973770116986 0 0.0065790425330240748 -0.011818100847102282 0 -0.012079037464274191 0 0.018010292824561513 0.06251029596253492 -0.01639640200925024 0.0056802366398739134 0.01343930656816906 0.013398359217535885 0 0 -0.022758884211955283 0.031784183096290212 0 0.0114632060292802 -0.0027736582610591422 0.0031666668154355176 0.044632375295418331 0.00011475501571550516 -0.018168019130203935 0.0016133623118194504 0.019759459919625615 0 -0.015331647913707924 -0.012313178795853951 -0.013901424984552305 -0.01154462103665237 -0.0056320110537454032 0.0025579584035820141
leaf_weight=115.44841339346021 55.900402625091374 99.561911795288324 17.649814771488309 14.785844408906994 39.416514277458191 16.711379582993686 32.651317569427192 23.451740617863834 25.642965476028621 104.77739627286792 57.567049205303192 14.551241574808953 29.812239703722298 24.023369118571281 14.281735138036309 19.956427847035229 878.56206570100039 42.587840732187033 12.755603043362497 29.067505805753171 13.67025855462998 17.10464072227478 17.772693558596075 17.769148843362931 315.13594788871706 23.014106737449765 18.485918505117297 17.33309821691364 103.0071011018008 25.429389196448028 41.130755047313869 19.99487523548305 12.533680727705358 22.938713245093822
leaf_count=1796 2465 3629 1377 924 2921 1060 2500 1249 1447 2883 4204 949 1561 1020 1022 1388 76135 1317 879 1955 896 1121 1144 1255 25885 1690 1094 1362 8532 1855 3172 1445 925 1539
internal_value=1.08568e-05 0.0480277 -0.0137032 -0.00372513 0.0247177 0.0211715 -0.00983991 0.037909 0.0319195 0.0695732 -0.000413353 0.00359048 0.0404134 0.0455449 0.0103219 0.0179701 -0.0214177 0.055349 0.000812874 0 0.00837086 0.0252109 0.0325796 -0.00577 -0.0165374 -0.00512005 0.0119805 -0.011807 -0.0135029 -0.00741796 -0.0095296 -0.00755762 0 0
internal_weight=2334.48 517.88 1816.6 800.051 255.066 152.734 647.317 79.3521 215.649 262.814 276.516 218.949 153.398 123.585 132.964 69.6196 1016.55 147.365 73.3823 63.3441 62.2519 49.6632 32.5585 85.9848 370.801 55.6654 35.1973 137.99 120.34 38.185 71.4336 34.2766 30.3028 36.609
internal_count=164596 19009 145587 58181 13013 8602 49579 3714 10092 5996 19504 15300 6210 4649 8999 4577 87406 4200 4888 4422 3882 3189 2068 6301 30075 4190 2154 11271 9894 2734 5352 2467 2180 2435
is_linear=0
shrinkage=0.0243464


Tree=11
num_leaves=37
num_cat=0
split_feature=107 16 18 21 51 138 52 153 138 8 8 107 56 11 33 149 8 22 55 153 31 25 18 81 58 81 125 22 71 73 149 22 8 113 138 149
split_gain=2416.36 356.274 238.806 126.161 111.563 97.313 68.1956 63.9117 52.5994 46.5501 33.5993 26.6401 24.196 21.4074 18.4784 16.3638 13.1285 13.0874 12.2952 12.056 11.9053 10.084 9.44098 8.37798 7.26086 5.79585 3.86276 3.43297 3.02283 2.31703 1.80919 1.80216 1.6885 1.59453 1.57448 0.310012
threshold=32.500000000000007 -58.574999999999996 1497.6950000000002 1.0000000180025095e-35 1.0000000180025095e-35 9717.2550000000028 1.0000000180025095e-35 768.31500000000017 7834.8500000000013 31441.060000000005 25115.155000000002 88.500000000000014 4354.7300000000005 1286.5000000000002 5338.4400000000014 667.50000000000011 12388.855000000001 -4288.9699999999984 1.0000000180025095e-35 768.31500000000017 1298.2000000000003 17747.260000000006 401.56000000000006 7625.0850000000009 6302.9850000000015 68586.235000000015 -550.18499999999983 18750.185000000005 1.0000000180025095e-35 4.5000000000000009 4095.5000000000005 1980.4350000000002 12388.855000000001 -744.49999999999989 19534.155000000002 2135.5000000000005
decision_type=2 2 2 2 2 10 2 10 10 2 2 2 2 2 2 8 2 2 2 10 2 2 2 2 2 2 8 2 2 2 10 2 2 10 10 10
left_child=1 3 7 -1 5 9 10 14 -5 12 15 18 21 16 -2 -3 20 -10 22 -17 24 32 23 -9 25 35 -13 -11 -6 -15 -26 -22 -4 -12 -30 -7
right_child=2 6 4 8 28 13 -8 11 17 27 33 26 -14 29 -16 19 -18 -19 -20 -21 31 -23 -24 -25 30 -27 -28 -29 34 -31 -32 -33 -34 -35 -36 -37
leaf_value=0.079514032840447543 0.041385025998004081 0.0054280136587028793 0.038328023438889594 0.052112379532536918 -0.022320185324058172 0.00098573356544709554 -0.011481248740674445 0.029767578331064169 0.029850166767913973 0 0.0062877608444141791 -0.015617728498863651 -0.0026157576657028269 -0.0024062651851933874 0.0050862233471545646 0.040744063071974895 -0.013527838124725447 0.0009451531919142923 -0.0030646358853113481 0.0099886760460546689 0 0.003993338973714575 0 0 0 0 0 -0.012656418086383429 0 -0.020470206801278552 -0.0088597466178452905 -0.013263118103040494 0.014636699823285472 -0.0011609888563150982 -0.010652206473075325 0.020011780160347496
leaf_weight=134.9286130964756 40.061136308126152 23.474605236202478 27.247736648656428 169.57133675459772 924.70297385007143 13.227911461144688 34.669340767897666 26.838662751019001 23.545566060580313 12.767447813414035 19.629347835667431 30.908889473415911 19.029498767107725 17.79663114156574 19.757546746172011 68.632550683803856 138.00735251232982 25.446824283339083 15.019454580731688 22.03303542919457 16.971746584400535 24.084288428537548 14.876881980337201 14.909394402056931 15.721218095161023 14.632196467369793 24.178878523409367 38.4666150752455 11.672451400198044 211.9263438815251 14.387025664560495 38.645630283281207 30.663836629129946 17.563567881472409 18.5162602243945 17.296629306860268
leaf_count=2105 1767 1158 1442 4522 82156 885 2656 1576 911 734 1109 2442 1218 1409 1066 2871 10855 1322 964 1331 1262 1452 960 948 1146 1063 1775 2944 932 17992 1070 3087 1765 1024 1489 1188
internal_value=1.6681e-05 0.0450327 -0.0135526 0.0593949 -0.0166058 -0.00851575 0.0165526 0.0120278 0.0453206 0.00797791 0.0237134 0.00119584 0.0176547 -0.0137634 0.0319601 0.0301248 -0.00826519 0.0178381 0.0113361 0.0350162 -0.00177732 0.0233531 0.016655 0.022125 0.00361067 0.0100369 -0.010274 -0.00929686 -0.0219622 -0.0195398 -0.00332327 -0.0103929 0.0290928 0.000723919 -0.0068991 0.0155753
internal_weight=2331.81 539.495 1792.31 353.492 1605.76 650.872 186.002 186.551 218.564 152.259 151.333 126.732 101.025 498.613 59.8187 114.14 268.89 48.9924 71.6444 90.6656 130.882 81.9959 56.6249 41.7481 75.265 45.1567 55.0878 51.2341 954.892 229.723 30.1082 55.6174 57.9116 37.1929 30.1887 30.5245
internal_count=164596 19009 145587 8860 134089 49512 10149 11498 6755 9555 7493 8665 5877 39957 2833 5360 20556 2233 4448 4202 9701 4659 3484 2524 5352 3136 4217 3678 84577 19401 2216 4349 3207 2133 2421 2073
is_linear=0
shrinkage=0.0243464


Tree=12
num_leaves=36
num_cat=0
split_feature=18 28 51 28 22 33 71 8 21 55 127 31 8 11 8 72 125 8 134 8 31 153 57 73 24 153 72 81 112 149 73 73 16 112 140
split_gain=2147.58 420.944 253.903 246.08 90.3465 71.9149 66.1631 54.6733 62.7756 35.3458 33.5365 27.992 27.4366 21.0463 19.766 19.7102 18.0995 15.8629 15.4976 14.4606 12.7388 12.1242 8.63623 7.01747 6.66581 6.65029 5.09519 3.76668 3.61424 3.36544 2.57207 2.41713 1.99432 1.56541 1.46676
threshold=1497.6950000000002 5376.1950000000006 1.0000000180025095e-35 10111.770000000002 18750.185000000005 17788.065000000006 1.0000000180025095e-35 14198.380000000003 1.0000000180025095e-35 1.0000000180025095e-35 773.00000000000011 1298.2000000000003 31441.060000000005 1286.5000000000002 25115.155000000002 1504.5850000000003 -10306.379999999999 25115.155000000002 164689.20000000004 12388.855000000001 1298.2000000000003 568.90500000000009 2.5000000000000004 4.5000000000000009 4.5000000000000009 3137.7750000000001 1.0000000180025095e-35 4833.3450000000012 95013.000000000015 3349.5000000000005 1.0000000180025095e-35 4.5000000000000009 -5791.8799999999983 82344.60000000002 2873.8850000000007
decision_type=2 2 2 2 2 2 2 2 2 2 8 2 2 2 2 2 8 2 8 2 2 10 2 2 2 10 2 2 8 10 2 2 2 10 8
left_child=1 6 3 4 5 11 10 -8 -9 12 -1 14 16 19 18 30 -3 21 -2 20 22 28 24 -19 -5 -11 -18 -28 -6 -24 -4 -15 -12 -22 -21
right_child=2 9 15 13 17 -7 7 8 -10 25 32 -13 -14 31 -16 -17 26 23 -20 34 33 -23 29 -25 -26 -27 27 -29 -30 -31 -32 -33 -34 -35 -36
leaf_value=0.011158655264803344 0.027505320333007895 0 -0.0013936117728492797 0.016707016086634708 0 -0.0038051162752318268 0.081278621421489478 0.069396219927779224 0.03397708130987958 0 0.058327125042795511 0.0037671933271144395 -0.0046839182644675221 -0.0029559973530272694 0.012585641186048685 0 0.010550915554033367 0.0006701034695780466 0.063920758939794556 0 0 -0.0035756694806221394 0.0015292238276507773 -0.012581464337636629 0 -0.016221844447066137 0.037686556665642364 0.010479997097796127 0.020187764409946015 -0.0094922855838788789 -0.022342911210191361 -0.019820077238403417 0.031435705862592297 -0.012791510510988915 -0.014341705573135074
leaf_weight=36.946729858405888 37.822004441171885 18.942408269271255 13.700418021529911 31.916172361001372 16.305235710926354 27.197266885079443 92.015033882111311 73.71293503139168 103.43968425597996 17.349913515150547 33.223913102410734 19.984642783179879 25.046355631202459 20.588487046770751 22.732143422588706 19.569478752091527 36.052250371314585 21.103025102056563 35.702509006485343 17.367717256769538 14.602530458942054 18.957463183440268 14.736817923374472 46.227256315760314 14.66266798507422 24.723359561525285 34.920540321618319 20.268738708458841 31.793653375469148 21.558783924207091 936.05922877974808 208.28223398793489 57.532646100968122 41.026659600436687 123.29972371272743
leaf_count=1339 1640 1293 1072 2087 958 1460 1816 1058 2884 1143 708 1050 1645 1605 1069 1459 2127 1400 1468 1289 1139 1295 1049 3494 1050 1889 1676 1184 1839 1586 84742 18014 2051 3222 9796
internal_value=1.80736e-05 0.0407621 -0.0133207 -0.00287212 0.0152596 0.0284249 0.0546315 0.0624018 0.0504664 0.00866721 0.0361127 0.036621 0.014902 -0.0130139 0.0420731 -0.0216474 0.020186 0.00010392 0.0488349 -0.00774739 -0.00130092 0.00886287 0.00392351 -0.00730977 0.0109708 -0.00887917 0.024515 0.0306934 0.0154646 -0.00298513 -0.0221466 -0.0187854 0.0443609 -0.0103958 -0.0132288
internal_weight=2329.37 574.175 1755.2 785.867 277.825 143.439 396.871 269.168 177.153 177.304 127.703 116.241 135.23 508.042 96.2567 969.329 110.184 134.387 73.5245 279.171 138.504 67.0564 82.8744 67.3303 46.5788 42.0733 91.2415 55.1893 48.0989 36.2956 949.76 228.871 90.7566 55.6292 140.667
internal_count=164596 20813 143783 56510 15673 6687 9856 5758 3942 10957 4098 5227 7925 40837 4177 87273 6280 8986 3108 21218 10133 4092 5772 4894 3137 3032 4987 2860 2797 2635 85814 19619 2759 4361 11085
is_linear=0
shrinkage=0.0243464


Tree=13
num_leaves=38
num_cat=0
split_feature=107 18 18 137 52 52 21 28 8 71 52 107 32 22 18 8 28 8 22 113 138 72 107 142 28 5 73 10 150 125 18 28 73 73 18 150 8
split_gain=2103.79 272.063 225.773 109.111 60.7902 60.5521 59.1678 47.4757 44.4331 45.299 39.1341 38.1221 29.6869 22.2262 21.2779 19.6317 18.2678 20.3568 16.8153 16.4739 14.2515 11.8786 11.4561 4.77761 4.48755 4.25324 3.9939 3.7094 4.77648 3.6795 2.70386 2.5302 1.95165 1.59361 1.58591 1.03357 0.671626
threshold=32.500000000000007 3037.3750000000005 6961.4800000000005 8340.3850000000002 1.0000000180025095e-35 1.0000000180025095e-35 1.0000000180025095e-35 3655.8500000000008 35575.410000000011 1.0000000180025095e-35 1.0000000180025095e-35 82.500000000000014 1.0000000180025095e-35 33325.420000000006 401.56000000000006 14198.380000000003 11672.170000000002 20161.635000000006 1980.4350000000002 -1018.4999999999999 29306.325000000004 1947.3850000000002 48.500000000000007 309654.40500000009 1.0000000180025095e-35 41.500000000000007 7.5000000000000009 -320.79499999999996 7499.2000000000007 -550.18499999999983 3037.3750000000005 28808.575000000004 6.5000000000000009 6.5000000000000009 37356.535000000011 12858.965000000002 6045.3000000000011
decision_type=2 2 2 10 2 2 2 2 2 2 2 2 2 2 2 2 2 2 2 8 8 2 2 10 2 2 2 2 10 8 2 2 2 2 2 10 2
left_child=1 6 3 4 12 7 20 13 9 19 16 14 -2 -4 25 -11 17 -3 26 -8 -1 -7 34 36 -19 -5 -9 -24 -29 -13 -6 -28 -31 -15 -20 -27 -16
right_child=2 10 5 11 30 21 8 18 -10 15 -12 29 -14 33 23 -17 -18 24 22 -21 -22 -23 27 -25 -26 35 31 28 -30 32 -32 -33 -34 -35 -36 -37 -38
leaf_value=0.077796098299980507 0.041544723770142497 0.03248689368770008 0.021149301597403074 0 0.00050781741022215879 -0.022292237412940709 0.009551377517777352 0.0083950741960333846 0.008335513258269452 0.064914591024978416 -0.010932886399370357 -0.018978462505766774 0.0025121458550544278 0 0 0.036758368240255183 0 0.012132561179213153 0.0026758224851068583 0.037605099880850902 0.048944336716589341 0 -0.0184763355385969 0.0039384247704324958 0 0.005616895117728722 0 0 -0.013611258911513217 0 -0.0097508481082548264 -0.0097036363892366653 -0.0096181414107014713 -0.0082851508411633714 -0.0064296202744250413 0.028898328133742296 -0.010915210545067815
leaf_weight=70.226380578242242 62.618050466291606 49.866147756576538 31.009745847433805 16.419254016131163 22.186307173222303 834.60488782636821 43.204516959376633 15.977710900828241 32.270084468647838 75.651865480467677 31.386419106274843 73.193290647119284 21.08654934540391 22.7347745988518 19.636697225272655 78.601245420984924 24.334390462376177 24.382199389860034 19.272843086160719 32.451833010651171 98.429474837146699 13.328596492297946 288.08561240229756 14.856754784472285 17.899757214821875 17.762928881682456 12.291138772852717 37.784996240399778 53.297387415543199 23.320548087358475 13.911319076083599 21.966471063904464 34.750044316984713 18.183641227893531 14.607608892954884 15.101542010903357 29.486195092089474
leaf_count=1020 2621 2192 1629 979 1371 77511 1678 1127 929 1984 2513 6081 1077 1567 1402 2101 1576 1189 1332 1061 1741 995 24435 1083 1025 1026 890 2884 4514 1801 1228 1760 2756 1328 1139 926 2125
internal_value=2.69902e-05 0.0401362 -0.0132647 0.00354134 0.0223297 -0.0177568 0.0499118 -0.0108553 0.0402633 0.0441188 0.0104582 -0.00550094 0.0333582 0.00639386 0.00415972 0.0524804 0.0171778 0.0219593 -0.0137672 0.024075 0.0630586 -0.0219296 -0.0153706 -0.00395308 0.00574523 0.0159511 0 -0.0165789 -0.00905315 -0.014406 -0.00169344 -0.0049863 -0.00626008 -0.00360248 0 0.0208742 -0.00822744
internal_weight=2326.18 578.704 1747.47 364.329 119.802 1383.15 430.835 535.212 262.18 229.909 147.869 244.527 83.7046 71.9282 113.263 154.253 116.482 92.1481 463.284 75.6563 168.656 847.933 413.048 63.9796 42.282 49.2837 50.2353 379.168 91.0824 131.264 36.0976 34.2576 58.0706 40.9184 33.8805 32.8645 49.1229
internal_count=164596 19009 145587 24476 6297 121111 10514 42605 7753 6824 8495 18179 3698 4524 7541 4085 5982 4406 38081 2739 2761 78506 34304 4610 2214 2931 3777 31833 7398 10638 2599 2650 4557 2895 2471 1952 3527
is_linear=0
shrinkage=0.0243464


Tree=14
num_leaves=40
num_cat=0
split_feature=107 18 18 137 21 52 52 52 28 153 8 28 107 8 71 8 12 18 72 74 12 81 16 12 137 9 18 56 112 123 12 18 31 137 52 81 18 140 28
split_gain=1972.73 319.018 166.627 94.1408 65.0082 63.9087 56.5697 43.3859 35.5326 35.477 32.2017 29.6154 26.0495 25.1195 46.8664 14.3822 13.2544 12.7928 11.0141 10.4447 10.2955 7.89082 7.38417 6.03713 5.78133 4.19827 4.6232 4.14385 3.45845 3.33842 3.30143 5.75369 7.4418 1.99336 1.9393 1.23458 1.20278 0.743291 0.355089
threshold=40.500000000000007 1497.6950000000002 6961.4800000000005 8340.3850000000002 1.0000000180025095e-35 1.0000000180025095e-35 1.0000000180025095e-35 1.0000000180025095e-35 5376.1950000000006 967.72500000000014 20161.635000000006 3655.8500000000008 88.500000000000014 28023.305000000004 1.0000000180025095e-35 14198.380000000003 7.5000000000000009 401.56000000000006 2067.9650000000006 429.51500000000004 7.5000000000000009 4833.3450000000012 -1484.6449999999998 6.5000000000000009 27698.605000000003 254.12000000000003 32741.135000000006 70.580000000000013 278688.96000000002 6.5000000000000009 7.5000000000000009 54580.74500000001 882.97500000000014 20703.180000000004 90437.710000000006 1.0000000180025095e-35 9297.1200000000008 7499.2000000000007 61535.140000000007
decision_type=2 2 2 10 2 2 2 2 2 10 2 2 2 2 2 2 2 2 2 2 2 2 2 2 8 2 2 2 8 8 2 2 2 10 2 2 2 8 2
left_child=1 4 3 6 24 9 16 11 13 10 -3 25 17 14 -6 -16 -2 21 -9 27 -12 -5 -10 -14 -1 -4 -27 37 -19 35 31 32 33 -21 -8 -11 -7 -13 -35
right_child=2 5 7 12 8 36 34 18 22 29 20 19 23 -15 15 -17 -18 28 -20 30 -22 -23 -24 -25 -26 26 -28 -29 -30 -31 -32 -33 -34 38 -36 -37 -38 -39 -40
leaf_value=0.072206018585009746 0.041673790996047247 0.03497498074839369 0.012017941190143112 0.019455701907325297 0.023079868903696295 0 -0.0079321233470633287 -0.02231562670542929 0.024015389933027789 0 0.015781095402814773 0.0058004412384857285 0 0.018673709577553363 0.069896449122695145 0.037771804617896615 0.0082795061290002869 -0.0090782699693525409 0 0.0053982723631291352 -0.0015114791764512989 0 0.0022562104037454002 -0.017232643924492894 0.046976291555628026 0.0058280282216105171 -0.0078478223149778432 -0.0094112141648387791 0 0.008651228084313357 -0.018871328008142951 -0.017334200385189888 -0.012477967379143513 -0.0046494883586583593 0 -0.0061963594194681263 -0.013661529576248979 0 0
leaf_weight=75.030324573628604 43.876263578422368 75.188332778401673 15.288711696863173 24.138802732340991 55.977052518166602 12.955662507563828 19.136031411588196 802.89016627240926 34.324118274264038 14.553787515498696 35.592861656099558 14.490162421017883 19.590730017982423 42.999231277033687 58.036350699141622 55.963193796575069 20.349769746884704 41.155265324749053 12.41956510581076 22.021244323812425 23.085554626770318 16.898181541822851 27.58310588542372 100.95090107154101 100.00379489921033 21.577420983463526 26.256008720956743 23.04810858424753 17.180140951648355 17.986128927208483 211.23172252252698 69.321378162130713 47.924647306092083 25.114000994712114 12.585464139468966 23.487430213019252 38.052310872823 13.111484489403667 11.665238331072031
leaf_count=1017 1876 3128 907 1401 1743 982 1395 76250 1446 923 1787 1019 1557 1118 1112 1257 977 3073 925 1576 1282 1099 1355 8399 1673 1225 1870 1813 1264 1144 18214 6107 3988 1994 938 1498 3265 1026 973
internal_value=3.5055e-05 0.0344427 -0.0145197 0.00107256 0.0465433 0.0110598 0.0209476 -0.0183241 0.0370657 0.0176891 0.0243397 -0.0120833 -0.00740266 0.0421912 0.0470218 0.0567758 0.0335985 0.000993761 -0.0219652 -0.0143482 0.00782303 0.0115375 0.0164863 -0.0148852 0.0597171 0.00214695 0 -0.00154967 -0.00518564 0 -0.0157479 -0.0111348 -0.0057682 0 -0.00294982 -0.00278557 -0.0113933 0.00241241 -0.00320878
internal_weight=2323.04 690.819 1632.22 315.862 449.917 240.902 95.9475 1316.36 274.883 189.894 133.867 501.05 219.914 212.976 169.977 114 64.226 99.3724 815.31 437.928 58.6784 41.037 61.9072 120.542 175.034 63.1221 47.8334 50.6498 58.3354 56.0273 387.278 176.047 106.725 58.8005 31.7215 38.0412 51.008 27.6016 36.7792
internal_count=164596 24730 139866 21979 10721 14009 5186 117887 8031 9762 6197 40712 16793 5230 4112 2369 2853 6837 77175 36710 3069 2500 2801 9956 2690 4002 3095 3858 4337 3565 32852 14638 8531 4543 2333 2421 4247 2045 2967
is_linear=0
shrinkage=0.0243464


Tree=15
num_leaves=37
num_cat=0
split_feature=107 16 51 28 28 52 64 25 12 118 10 55 27 31 7 25 32 149 26 12 149 81 97 16 127 10 72 140 7 9 28 112 107 112 28 10
split_gain=1854.36 255.41 164.884 129.501 100.976 65.0644 37.3646 32.1523 35.5636 31.8982 51.4088 22.7723 22.1432 18.2227 15.8142 14.7338 16.8021 15.9417 13.8196 13.4798 11.6127 8.21012 6.30083 5.04677 4.43036 4.23573 4.1975 3.92936 3.30374 3.19224 2.38466 2.21508 2.10957 1.87219 1.31917 1.19748
threshold=40.500000000000007 -58.574999999999996 1.0000000180025095e-35 8544.1900000000005 5376.1950000000006 1.0000000180025095e-35 7317.6550000000016 15795.255000000003 7.5000000000000009 694.40500000000009 -1093.3299999999997 1.0000000180025095e-35 2.5000000000000004 1885.2300000000002 3145.0700000000002 8751.0650000000005 1.0000000180025095e-35 4669.5000000000009 1.0000000180025095e-35 7.5000000000000009 667.50000000000011 2347.1700000000005 1.0000000180025095e-35 -1166.8499999999997 1243.5000000000002 -221.80499999999998 2067.9650000000006 5496.6450000000013 2591.5800000000004 911.2650000000001 18337.910000000003 95013.000000000015 100.50000000000001 82344.60000000002 16590.310000000005 -799.27999999999986
decision_type=2 2 2 2 2 2 2 2 2 8 2 2 2 2 2 2 2 10 2 2 8 2 2 2 8 2 2 10 2 2 2 10 2 10 2 2
left_child=1 4 3 6 9 12 7 8 31 -1 -11 13 14 15 20 16 17 19 23 -5 -3 -6 -15 -4 -14 -13 -20 -27 -8 -24 -26 -2 -9 -29 -17 -19
right_child=2 5 18 11 21 -7 28 32 -10 10 -12 25 24 22 -16 34 -18 35 26 -21 -22 -23 29 -25 30 27 -28 33 -30 -31 -32 -33 -34 -35 -36 -37
leaf_value=0.025086152423511199 0.022981422946124118 0.0053033600955517115 0.0050365222478823014 0.02602114683172109 0.021952590594907232 -0.011351632128330786 0.00034684107582597443 -0.0047140276026164923 0.0025638012820126477 0.076211414030937952 0.045141598702853274 -0.018553531523069433 -0.0024934355561832995 0 0.0012831771462953902 0 -0.011661077784500217 -0.0061546945545932624 -0.022232108832535253 0 0.032094101775339466 0.0019122587607861804 0 -0.010119701673952557 0.01232412567231372 0 -0.001120621128761997 0 -0.0089408127753300981 -0.016764464142317043 0 0.053302836882979862 0.005830396694096668 -0.013150459311447225 -0.011868852953582483 0
leaf_weight=56.521696140989661 34.179997077211738 22.734135596081614 11.686616449616848 36.357521840371192 47.917378121986985 48.983907849527895 22.324635220691562 18.982280814088881 30.827896559610963 61.819645172916353 265.53712085075676 211.97803894523531 17.766064798459411 12.824974895454941 24.177497854456306 12.023370908573268 18.352696163579822 15.642800033092501 847.08636814728379 16.018509871326387 88.080302665941417 31.66547507699579 18.12505847774446 24.434816901572049 28.873390537686646 13.49679348990321 15.551922746002672 11.69554386846721 28.319842069409788 85.48409977927804 16.176758151501417 20.596695142798126 17.618772113695741 31.930216278880835 41.638886431232095 12.260203158482907
leaf_count=1071 1634 1006 834 2554 2055 4045 1290 1158 1721 783 5486 18282 1031 971 1371 916 1361 1232 81504 1213 3433 1715 1450 2190 1631 1070 1152 954 1986 7193 1103 990 1099 2718 3485 909
internal_value=4.35499e-05 0.0327417 -0.0143744 -0.00538729 0.0434197 0.0119334 0.0124904 0.0197208 0.0275701 0.0487225 0.0521601 -0.0113574 0.0182787 -0.00566168 0.0239053 0 0.00547066 0.0108776 -0.02132 0.0185335 0.0278009 0.0155861 -0.0127351 -0.00286226 0.00405905 -0.0165311 -0.0219671 -0.00675093 -0.00340716 -0.014703 0.00855062 0.0388899 0 -0.0103578 -0.00989948 -0.00108313
internal_weight=2319.69 710.253 1609.44 710.679 463.461 246.792 172.85 122.206 85.6046 383.878 327.357 537.829 197.808 268.728 134.992 152.294 98.6317 80.279 898.76 52.376 110.814 79.5829 116.434 36.1214 62.8162 269.101 862.638 57.1226 50.6445 103.609 45.0501 54.7767 36.6011 43.6258 53.6623 27.903
internal_count=164596 24730 139866 54186 11110 13620 9878 6602 4345 7340 6269 44308 9575 21284 5810 11670 7269 5908 85680 3767 4439 3770 9614 3024 3765 23024 82656 4742 3276 8643 2734 2624 2257 3672 4401 2141
is_linear=0
shrinkage=0.0243464


Tree=16
num_leaves=39
num_cat=0
split_feature=107 18 18 137 52 52 21 52 27 27 8 71 107 8 127 8 22 8 22 18 72 9 12 12 81 12 138 127 142 9 8 22 52 9 18 10 108 22
split_gain=1743.31 256.345 162.94 86.4196 56.8272 49.1137 48.37 43.3531 36.1867 27.8577 27.3207 33.1949 25.0721 23.9082 18.0033 16.0605 14.2573 12.1109 12.0782 12.0272 10.916 9.09303 8.62025 7.94311 7.36345 5.97691 5.60844 4.34719 4.11849 3.36002 3.21259 2.58356 1.82887 1.60526 1.16207 0.745256 0.436329 0.31891
threshold=40.500000000000007 1497.6950000000002 6961.4800000000005 8340.3850000000002 1.0000000180025095e-35 1.0000000180025095e-35 1.0000000180025095e-35 1.0000000180025095e-35 2.5000000000000004 3.5000000000000004 35575.410000000011 1.0000000180025095e-35 88.500000000000014 20161.635000000006 773.00000000000011 14198.380000000003 1980.4350000000002 25115.155000000002 33325.420000000006 401.56000000000006 2067.9650000000006 310.84500000000008 7.5000000000000009 7.5000000000000009 4833.3450000000012 6.5000000000000009 29306.325000000004 4179.5000000000009 309654.40500000009 1547.2100000000003 6045.3000000000011 1980.4350000000002 90437.710000000006 254.12000000000003 42569.460000000014 -221.80499999999998 1.0000000180025095e-35 91448.23000000001
decision_type=2 2 2 10 2 2 2 2 2 2 2 2 2 2 8 2 2 2 2 2 2 2 2 2 2 2 8 8 10 2 2 2 2 2 2 2 2 2
left_child=1 6 3 5 8 17 26 9 13 18 11 14 19 -3 -8 -13 22 -2 29 24 -9 37 -11 -15 -5 -14 -1 30 -21 -4 -10 -6 -7 -20 -35 -32 -23 -18
right_child=2 4 7 12 31 32 10 20 27 16 -12 15 25 23 -16 -17 21 -19 33 28 -22 36 -24 -25 -26 -27 -28 -29 -30 -31 35 -33 -34 34 -36 -37 -38 -39
leaf_value=0.063560040968334564 0.038874569657362981 0.033712743601673457 0.01741060597199643 0.018766217476708265 0 -0.0076176710224473664 0.0022667370214534081 -0.022203651074672353 0.0033343684473618788 0.0083118331495735387 0.0085571166361870388 0.052792445366279285 0 0.015149819618463858 0.029046521348442583 0.029691621293929042 0 0.0077234000287719502 0 -0.0089990656183227512 0 -0.017651621949940067 -0.01130203388055882 -7.2449440663884699e-06 0 -0.016996177216523425 0.041382487557596694 0.0096463105455619307 0.0018643409412479528 0 -0.010466737651772216 -0.013902586153794845 0 0 -0.011124758477969447 0 0 -0.0034305389698021512
leaf_weight=81.776371153071523 45.566919370554388 70.19503244291991 16.830371360294521 24.579777712002397 11.187709101475773 18.717438345775012 34.435788764618337 768.9269376154989 17.797166869975626 22.68051715195179 36.281204415485263 88.980151860974729 19.401573929935694 34.361979367211461 44.860663890838623 87.67439238820225 14.048388910479845 21.503248358145356 12.21559388656169 44.034748733043671 12.404427974484859 316.82969448342919 21.438798409886658 19.457236809656024 16.846554984338582 97.823114536702633 108.8903643777594 22.992644377052784 13.590996246784924 20.206111587584019 16.394747534766797 39.005315516144037 12.453289510682223 13.002317433245478 31.87850272282958 15.323007525876163 10.27125404961407 11.97654239926487
leaf_count=1007 1838 2728 894 1401 872 1395 1317 76250 1022 1706 1029 2111 1557 1625 1379 2195 1012 1015 837 3319 925 28012 1735 1031 1099 8399 1683 1416 1018 1170 1064 3375 938 921 2517 876 929 979
internal_value=4.59289e-05 0.0311337 -0.0142286 0.00117464 0.0102044 0.0198974 0.041458 -0.0181004 0.0162546 -0.0118333 0.033304 0.0362604 -0.00711416 0.0240946 0.0192264 0.0427785 -0.0146293 0.0312267 0 0.00107246 -0.0218398 -0.0162514 0 0.0084312 0.0112211 -0.0146105 0.0525115 0.00104673 -0.00495832 0.0102835 -0.00162193 -0.0111906 -0.0026047 -0.00677782 -0.00876532 -0.0070943 -0.0173533 0
internal_weight=2316.84 729.614 1587.23 314.518 246.715 98.2409 482.899 1272.71 196.522 491.378 292.232 255.951 216.277 124.014 79.2965 176.655 397.245 67.0702 94.1329 99.0521 781.331 353.126 44.1193 53.8192 41.4263 117.225 190.667 72.5076 57.6257 37.0365 49.5149 50.193 31.1707 57.0964 44.8808 31.7178 327.101 26.0249
internal_count=164596 24730 139866 21979 14009 5186 10721 117887 9762 40712 8031 7002 16793 5384 2696 4306 34373 2853 6339 6837 77175 30932 3441 2656 2500 9956 2690 4378 4337 2064 2962 4247 2333 4275 3438 1940 28941 1991
is_linear=0
shrinkage=0.0243464


Tree=17
num_leaves=39
num_cat=0
split_feature=107 22 11 28 28 84 28 149 118 10 24 31 11 24 22 71 16 11 81 74 12 71 149 55 22 8 127 107 81 112 22 108 97 97 27 107 83 127
split_gain=1642.06 220.312 121.151 93.0563 43.9714 44.0654 32.0521 30.53 33.9378 31.4861 23.4521 21.3785 18.4992 18.4383 20.5387 17.813 16.1486 15.7112 11.0668 10.9739 10.8687 8.12508 7.0097 5.14847 4.52274 3.75653 3.75135 3.23701 2.78189 2.5572 1.28687 1.16901 1.07284 1.58431 1.00119 0.999629 0.63158 0.323912
threshold=40.500000000000007 4593.2450000000008 334.10500000000008 5376.1950000000006 10111.770000000002 2.5000000000000004 1733.4950000000001 542.50000000000011 694.40500000000009 -1449.2549999999999 7.5000000000000009 1298.2000000000003 537.35000000000014 1.0000000180025095e-35 1980.4350000000002 1.0000000180025095e-35 -1166.8499999999997 269.54500000000007 20141.080000000005 254.20500000000001 7.5000000000000009 1.0000000180025095e-35 3869.5000000000005 1.0000000180025095e-35 33325.420000000006 14198.380000000003 2333.5000000000005 82.500000000000014 15227.880000000001 304326.63500000007 -2080.7399999999993 1.0000000180025095e-35 1.5000000000000002 52.500000000000007 1.0000000180025095e-35 48.500000000000007 15158.090000000002 1622.5000000000002
decision_type=2 2 2 2 2 2 2 8 8 2 2 2 2 2 2 2 2 2 2 2 2 2 8 2 2 2 10 2 2 8 2 2 2 2 2 2 2 8
left_child=1 3 4 7 5 10 16 -1 -9 -10 11 18 19 14 23 -11 -4 30 -2 37 21 29 34 27 36 -7 -23 -8 -21 -6 -5 -15 -26 -34 -14 -16 -18 -3
right_child=2 12 6 17 20 25 13 8 9 15 -12 -13 22 31 35 -17 24 -19 -20 28 -22 26 -24 -25 32 -27 -28 -29 -30 -31 -32 -33 33 -35 -36 -37 -38 -39
leaf_value=0.019816091598550713 0.041992768691030628 -0.0017400606921230538 0.014995445388700224 0.025013130420599636 -0.012288279247399414 -0.011006859753314667 0.011265006451473108 0.020630255344431459 0.067872435807976986 0.026502988668727669 0 0 0 -0.020653242280417015 0 0.046779789723389621 -0.0028305163529614456 0 0.010506546752251969 0.021111282577119715 -0.016298044541597508 0.011043425628669057 0.004434616828887559 -0.0085303347603355433 0 0 0 0 0.002633826559174165 0 0.0083403330884606417 -0.0061198037580702386 -0.015312468540360408 0 -0.012503243879239224 -0.016278264539565237 0.0036686544913798625 0.0024351143143273349
leaf_weight=59.120122125372291 32.369349358603358 17.029980824328959 15.064622759819029 38.829963432624936 33.372230848297477 40.375967942178249 23.838650710880756 54.888918831013143 62.010713621973991 82.103211776353419 24.50702218990773 19.695761575363576 19.88846211694181 900.88356293737888 13.430877743288873 213.65217583067715 14.849570602178575 28.621741804294288 24.344266115687788 46.691810101270676 74.65306680649519 21.976747283712029 25.366452281363308 15.545815524645148 12.901649049483238 17.815318025648594 14.52605298347771 17.528772388584912 20.978518229909241 10.218666526488958 33.517391311004758 26.196221984922886 45.514774667099118 17.334002394229174 27.903432463295758 135.91395807731897 12.45754199195653 17.510627927258611
leaf_count=1584 1432 1031 1003 1479 2980 3274 1626 1016 762 2385 1661 1087 1369 86792 1111 3946 1183 1616 1354 1970 6403 1524 1767 1282 1160 1259 1061 1410 1153 899 1697 2522 4041 1490 2132 12340 972 823
internal_value=5.37e-05 0.0296698 -0.0140812 0.036966 -0.000241615 0.00833245 -0.017465 0.0416124 0.0442844 0.0473795 0.0180712 0.0244681 0.0050173 -0.0187497 -0.0107554 0.0419025 -0.00415355 0.0135859 0.0316394 0.0117402 -0.00963732 -0.00182146 -0.00328135 0.000167268 -0.00829606 -0.00712318 0.00485046 0.00597905 0.0171706 -0.00931905 0.0193788 -0.0203723 -0.0112225 -0.0126381 -0.00921732 -0.0154248 0 0
internal_weight=2313.43 748.114 1565.31 572.744 313.854 159.108 1251.46 471.775 412.655 357.766 100.916 76.4094 175.369 1133.34 206.258 295.755 118.122 100.969 56.7136 102.211 154.747 80.0937 73.1583 56.9132 103.058 58.1913 36.5028 41.3674 67.6703 43.5909 72.3474 927.08 75.7504 62.8488 47.7919 149.345 27.3071 34.5406
internal_count=164596 24730 139866 14485 22934 10067 116932 9693 8109 7093 5534 3873 10245 107083 17769 6331 9849 4792 2786 4977 12867 6464 5268 4318 8846 4533 2585 3036 3123 3879 3176 89314 6691 5531 3501 13451 2155 1854
is_linear=0
shrinkage=0.0243464


Tree=18
num_leaves=40
num_cat=0
split_feature=107 18 51 28 18 52 22 27 28 118 10 72 8 32 12 131 58 8 26 8 74 115 83 11 12 18 134 22 72 149 149 8 95 11 151 11 115 22 74
split_gain=1548.67 208.161 163.318 117.602 57.8376 51.9911 37.6168 31.5656 30.6095 23.7631 42.8072 21.1433 20.9735 17.6558 16.7013 15.6398 14.5884 14.6204 14.0348 10.5891 10.3743 10.1795 8.63826 7.99042 7.23524 5.99962 4.97916 4.30539 4.29717 3.79194 3.46613 3.2894 3.25357 2.94 2.20654 1.68386 1.53036 0.810664 0.351058
threshold=40.500000000000007 1497.6950000000002 1.0000000180025095e-35 8544.1900000000005 6961.4800000000005 1.0000000180025095e-35 1980.4350000000002 2.5000000000000004 5376.1950000000006 694.40500000000009 -1093.3299999999997 344.49500000000006 20161.635000000006 1.0000000180025095e-35 7.5000000000000009 369.49500000000006 13370.300000000001 14198.380000000003 1.0000000180025095e-35 31441.060000000005 310.92500000000007 1325.7350000000004 15158.090000000002 334.10500000000008 7.5000000000000009 4873.6400000000003 187210.80000000002 -2080.7399999999993 2067.9650000000006 2135.5000000000005 542.50000000000011 22528.370000000003 2.5000000000000004 145.17500000000004 6.5000000000000009 768.17500000000007 845.17000000000007 25223.215 1550.7100000000003
decision_type=2 2 2 2 2 2 2 2 2 8 2 2 2 2 2 8 2 2 2 2 2 8 2 2 2 2 10 2 2 10 10 2 2 2 10 2 10 2 2
left_child=1 8 3 4 14 7 13 12 9 -1 -11 30 -3 15 21 16 17 -5 25 22 35 -2 37 36 -14 -4 34 -10 -20 -9 -12 -31 -25 -7 -17 -8 -22 -6 -21
right_child=2 5 18 6 19 33 20 29 27 10 11 -13 24 -15 -16 26 -18 -19 28 38 23 -23 -24 32 -26 -27 -28 -29 -30 31 -32 -33 -34 -35 -36 -37 -38 -39 -40
leaf_value=0.019961418551661746 0.049404746581621382 0.030991934245109369 0.006536570363319308 0.031784736101797752 0 0 0.0054732847302493143 -0.0048596501206424119 0.023499475710097306 0.062377280160188078 0.012391434814096654 0.041683476003294938 0.013974847215236534 -0.013097072115704572 0.0040173656394198133 -0.001321788128867297 -0.0013027146887069766 0 -0.022072819914018254 0 0 0.015922994965727334 0.014301393086255294 -0.017744118754599351 -0.00029886614196079274 -0.010597573532450213 -0.011603708322349911 0.0043601995771045338 -0.0008295287426543826 0.009890539874225477 0.030662996614997693 0 0 -0.013932415179369455 0.0088202077385266635 -0.0052007518224015592 -0.0072108573627626569 -0.0049315357367769059 -0.012528209703675332
leaf_weight=59.807683061808348 23.148870750330389 73.742757234722376 11.695767738856373 24.460324096493423 15.745754530653356 10.699333754368125 12.273515244945886 24.029297625645995 45.155695958063006 73.222611146047711 50.58469720184803 220.8076346386224 35.497900035232306 40.099838984198868 23.093629594892263 12.585574897937478 14.65315410774201 15.37787176016718 798.29869467020035 13.535996653139589 18.865277501754463 28.818592352792621 30.984895990230143 304.00136752426624 19.727412445470691 23.710328177548945 22.005794544704258 26.966198053210974 15.31545071583241 32.583670297637582 37.61259650811553 16.513497496955097 13.379323405213652 39.149864559993148 12.827706410549579 14.69642375782132 14.066747194156049 16.837668368592858 23.97102877125144
leaf_count=1014 861 2728 756 1570 798 779 863 1430 1664 839 1393 3559 1625 3146 1097 907 1063 1110 81504 1047 1368 1203 1908 27972 1031 2268 1726 1306 1152 1830 946 1118 1208 3468 967 1233 1175 1125 1839
internal_value=5.5114e-05 0.0283087 -0.0139366 -0.00496727 0.0117873 0.00946609 -0.0108776 0.0151158 0.0372128 0.0399096 0.0425432 0.0367899 0.0222325 0 0.0273776 0.00521811 0.0140466 0.0214307 -0.021114 0 -0.014861 0.0350303 0.0055462 -0.015969 0.00762018 -0.00246419 -0.00340967 0.0181956 -0.0217942 0.000833574 0.0222158 0.00554859 -0.0171974 -0.0111038 0.00112027 0 -0.000996514 -0.000879187 -0.0100436
internal_weight=2310.55 766.101 1544.45 695.429 176.136 251.944 519.293 202.095 514.157 442.035 382.228 309.005 128.968 142.01 75.0611 101.91 54.4913 39.8382 849.02 101.075 377.283 51.9675 63.5683 350.313 55.2253 35.4061 47.4191 72.1219 813.614 73.1265 88.1973 49.0972 317.381 49.8492 25.4133 26.9699 32.932 32.5834 37.507
internal_count=164596 24730 139866 54186 9878 14009 44308 9762 10721 7751 6737 5898 5384 10489 3161 7343 3743 2680 85680 6717 33819 2064 3831 31723 2656 3024 3600 2970 82656 4378 2339 2948 29180 4247 1874 2096 2543 1923 2886
is_linear=0
shrinkage=0.0243464


Tree=19
num_leaves=40
num_cat=0
split_feature=18 51 28 28 22 33 116 133 56 56 134 149 51 72 125 11 116 10 12 32 33 9 10 149 56 22 5 153 22 11 120 73 73 10 5 10 11 28 71
split_gain=1406.28 234.5 185.774 184.885 60.3667 56.4837 32.8489 52.102 31.1528 24.7333 29.3804 21.1769 19.7783 19.4931 18.9473 18.909 11.6393 10.676 10.1801 9.13508 9.07703 8.02545 7.83748 7.75097 6.87956 6.02288 7.93551 5.68789 5.02759 4.58638 3.30753 2.95668 2.40703 2.23995 1.45791 2.18281 0.836691 0.717046 0.517879
threshold=1497.6950000000002 1.0000000180025095e-35 5376.1950000000006 11672.170000000002 33325.420000000006 13254.625000000002 776.98000000000013 1.0000000180025095e-35 583.18000000000018 3426.4850000000001 164689.20000000004 542.50000000000011 1.0000000180025095e-35 1504.5850000000003 -10306.379999999999 1286.5000000000002 1889.4750000000001 337.19500000000005 6.5000000000000009 1.0000000180025095e-35 5338.4400000000014 310.84500000000008 -132.85499999999999 4669.5000000000009 583.18000000000018 -1.0000000180025095e-35 49.500000000000007 3477.9450000000002 4593.2450000000008 687.20500000000015 468370.45000000007 1.0000000180025095e-35 4.5000000000000009 -425.10499999999996 34.500000000000007 610.36500000000012 269.54500000000007 26406.245000000006 1.0000000180025095e-35
decision_type=2 2 2 2 2 2 10 10 2 2 8 8 2 2 8 2 10 2 2 2 2 2 2 10 2 2 2 10 2 2 10 2 2 2 2 2 2 2 2
left_child=2 3 6 4 5 9 7 11 12 10 22 -1 14 31 -4 16 19 38 29 23 27 -20 -2 24 25 -5 -27 -16 -12 -6 -23 -3 -17 -25 -18 -36 -29 -26 -13
right_child=1 13 8 15 18 -7 -8 -9 -10 -11 28 17 -14 -15 20 32 34 -19 21 -21 -22 30 -24 33 37 26 -28 36 -30 -31 -32 -33 -34 -35 35 -37 -38 -39 -40
leaf_value=0.014050576424407164 0 -0.00049002820660505716 -0.001183321212473462 0 0.016983837566953482 -0.0054243288200243912 0.015092646412092721 0.062745851003866787 -0.014726042213030661 0 0.050567302213163488 0.028669868797114435 -0.0071980712799608604 0 0.02857702383268625 -0.0020628784436212593 0 0.021938504283106827 0.002774110569580138 -0.015050277343909969 0 -0.013994097966308421 0.0200802102192786 -0.01058580876405203 0 0.020713745425021156 0 0.013352965860600663 0.022001056101671499 0 0 -0.02196319084133054 -0.019514402384097441 0 -0.017410981736196079 0 0 -0.0065942977644706463 0.043948167232803037
leaf_weight=48.085597977973521 24.611891161650419 13.042235575616358 23.819075408391654 12.542595910839735 14.134575454518197 35.980612556450069 58.561969332396984 60.922796814702451 25.256477987393737 21.400268467143178 40.064281131140888 84.709972039796412 19.600150286220014 19.094829839654267 55.598880626261234 18.549995869398117 13.90129038877785 68.1136424113065 22.691377288661897 23.802553680725396 21.025672141462564 48.184772520326078 43.013702580705285 32.238389750942588 12.203089143149557 28.230743550695479 20.598400257527828 20.250718691386282 33.408204195089638 21.370520886033773 15.481939026154576 812.94008822180331 182.43480979930609 14.31652493868023 66.683219381608069 10.994142013601957 19.19570835493505 13.449114245362578 186.67973822914064
leaf_count=1185 1219 1072 1608 821 781 1838 1467 778 1968 1119 1391 2026 1565 1459 2466 1532 1180 1655 1440 1956 1265 3514 1706 2601 961 2068 1518 925 1520 1512 1149 84742 17651 1102 5832 966 1160 1133 2745
internal_value=6.02035e-05 -0.0123372 0.0290452 -0.00245722 0.0114424 0.019627 0.0366649 0.039112 0.00729241 0.0257357 0.0293417 0.034541 0.0116352 -0.0211769 0.0150569 -0.0125744 -0.00724931 0.0369677 -0.00134491 -0.00236386 0.0190997 -0.00641752 0.0141438 0 0.00450809 0.00924277 0.0131585 0.0222811 0.0406348 0.00800527 -0.0110521 -0.0217416 -0.0184358 -0.00735941 -0.0142019 -0.0157021 0.0093961 -0.00336875 0.0400169
internal_weight=2307.18 1615.36 691.82 770.287 320.342 198.479 507.074 448.512 184.747 162.498 141.098 387.589 159.49 845.077 139.89 449.945 248.96 339.503 121.863 157.381 116.071 86.3581 67.6256 133.579 87.0239 61.3717 48.8291 95.0453 73.4725 35.5051 63.6667 825.982 200.985 46.5549 91.5787 77.6774 39.4464 25.6522 271.39
internal_count=164596 143783 20813 56510 17189 8793 9856 8389 10957 6955 5836 7611 8989 87273 7424 39321 20138 6426 8396 12160 5816 6103 2925 10204 6501 4407 3586 4551 2911 2293 4663 85814 19183 3703 7978 6798 2085 2094 4771
is_linear=0
shrinkage=0.0243464


Tree=20
num_leaves=41
num_cat=0
split_feature=107 18 51 28 18 51 22 21 28 10 153 22 32 12 131 7 58 28 18 74 138 127 131 11 22 28 134 12 56 127 149 11 7 131 140 22 7 22 11 112
split_gain=1386 168.074 159.997 108.82 51.3724 38.2749 36.2804 31.7704 25.5189 22.1364 22.0029 17.9936 16.7354 14.5276 14.4584 14.122 13.5612 13.5046 10.6313 10.1312 9.95756 8.45819 7.91912 7.81191 7.2979 5.61391 4.77559 3.61717 3.16158 2.62044 2.30522 1.56408 1.52138 1.35871 1.02126 1.02092 1.00542 0.677141 0.560644 0.426769
threshold=40.500000000000007 3037.3750000000005 1.0000000180025095e-35 8544.1900000000005 6961.4800000000005 1.0000000180025095e-35 1980.4350000000002 1.0000000180025095e-35 6976.7300000000005 610.36500000000012 967.72500000000014 25223.215 1.0000000180025095e-35 7.5000000000000009 369.49500000000006 362.09500000000008 13370.300000000001 1733.4950000000001 3037.3750000000005 310.92500000000007 29306.325000000004 564.50000000000011 885.61500000000012 334.10500000000008 52745.450000000004 3655.8500000000008 187210.80000000002 7.5000000000000009 325.07500000000005 1440.5000000000002 3869.5000000000005 768.17500000000007 2850.3600000000001 41.055000000000007 2124.0800000000004 1980.4350000000002 1508.7550000000003 4593.2450000000008 206.68500000000003 82344.60000000002
decision_type=2 2 2 2 2 2 2 2 2 2 10 2 2 2 8 2 2 2 2 2 8 8 8 2 2 2 10 2 2 10 10 2 2 10 8 2 2 2 2 8
left_child=1 7 3 4 13 10 12 20 9 21 11 35 14 22 16 -10 27 18 -4 31 -1 -9 -2 33 25 -6 36 -5 -26 -17 34 -8 -13 -21 -12 -3 -16 -25 -7 -23
right_child=2 5 17 6 24 38 19 8 15 -11 30 32 -14 -15 26 29 -18 -19 -20 23 -22 39 -24 37 28 -27 -28 -29 -30 -31 -32 -33 -34 -35 -36 -37 -38 -39 -40 -41
leaf_value=0.050848666571670267 0.042599059320572223 0.035195071760207246 0.0027927489912353493 0.026035517853949679 0.01181386200607785 0 0.0053069494528856787 0.018119236686994597 -0.0021832621134095097 0.0092950359952026235 -0.0091124957406048899 0.0067276937896048527 -0.012873764794270198 0.0035271953669868765 0.0061288628280412533 0.023828778663391822 -0.0012573290958966623 -0.022383054483744787 -0.013917195446647995 0 0.031968964394397253 0.022263049736732345 0.012383602822521473 -0.00030859443286064938 0 -0.0010073775134505187 -0.011396684632883491 0.0011704879367654556 -0.012217425541549202 0.0037580931494448806 0.0042968877615280855 -0.0049953334811685627 0 -0.0068491199367075603 0 0.015521242771934084 0 -0.017375329549985608 -0.01320790993942106 0.040035666545066899
leaf_weight=95.694041481241584 29.825400217436254 26.295554643496871 16.46937829721719 26.729753229767084 32.63238344527781 11.068056910298763 12.362680976279082 55.467606621794403 21.64061198849231 42.388666634447873 14.573923231102526 25.426476810127497 39.284678084775805 23.548501841723919 12.719006178900601 26.972821070812643 14.616671504452823 704.92256992124021 93.969336783513427 19.062321718782187 128.55520715471357 48.805565409362316 24.751419456675649 12.926056810654698 25.083388158120215 18.480754331685603 21.607509412802756 14.047212012112139 25.256963707506657 21.626401704736054 18.786009036935866 14.502737495116888 20.725799324922264 13.700629992410539 15.110273942351341 48.304513233713806 12.723969587124882 295.38328570127487 34.309223937802017 143.57517968397588
leaf_count=1053 1062 885 986 1702 1711 862 863 1338 1003 1090 846 1293 3146 1097 926 1107 1063 75152 9542 1383 1842 1062 1002 1121 1839 1164 1726 978 2003 980 1223 1233 1271 1160 1012 1856 948 28059 3159 2848
internal_value=6.34138e-05 0.0259349 -0.0136515 -0.00479544 0.0110801 0.00678047 -0.0106159 0.0327091 0.0267642 0.0301797 0.0123365 0.0177694 0 0.0253904 0.00506403 0.0105018 0.0134502 -0.0209617 -0.0105929 -0.0146095 0.0412034 0.0331694 0.032317 -0.0157305 0 0.005742 -0.00325486 0.020454 -0.00678539 0.0176676 0 0 0.00293917 -0.000887241 -0.00528747 0.0251194 0.00109315 -0.0169744 -0.0113444 0.0365626
internal_weight=2303.93 799.326 1504.61 689.245 179.579 214.6 509.667 584.726 360.477 290.237 169.223 120.752 141.729 78.1253 102.444 70.2398 55.3936 815.361 110.439 367.938 224.249 247.848 54.5768 341.072 101.453 51.1131 47.0505 40.777 50.3404 48.5992 48.4702 26.8654 46.1523 32.763 29.6842 74.6001 25.443 308.309 45.3773 192.381
internal_count=164596 24730 139866 54186 9878 12407 44308 12323 9428 6338 8386 5305 10489 3161 7343 3090 3743 85680 10528 33819 2895 5248 2064 31723 6717 2875 3600 2680 3842 2087 3081 2096 2564 2543 1858 2741 1874 29180 4021 3910
is_linear=0
shrinkage=0.0243464


Tree=21
num_leaves=42
num_cat=0
split_feature=107 51 18 28 18 52 8 16 113 8 7 56 73 32 26 140 8 138 8 8 24 27 56 131 127 10 107 10 138 18 64 97 72 10 10 142 8 16 127 22 138
split_gain=1311.18 158.436 152.18 104.809 50.6207 38.1431 33.2672 27.725 23.2722 21.4985 29.08 20.5489 25.6882 17.2129 14.2981 12.89 12.6971 11.408 11.312 26.7154 10.8136 10.5037 8.15783 6.95199 6.57813 6.36395 6.25499 6.14088 5.96828 5.28763 4.93672 4.83432 4.48366 4.01673 3.95644 3.67913 3.42224 3.14141 0.987588 0.878685 0.496135
threshold=40.500000000000007 1.0000000180025095e-35 3037.3750000000005 10111.770000000002 6961.4800000000005 1.0000000180025095e-35 14198.380000000003 -1484.6449999999998 -1687.4999999999998 20161.635000000006 1726.1700000000003 583.18000000000018 7.5000000000000009 1.0000000180025095e-35 1.0000000180025095e-35 2873.8850000000007 31441.060000000005 1793.3550000000002 12388.855000000001 1547.4600000000003 1.0000000180025095e-35 1.0000000180025095e-35 4354.7300000000005 369.49500000000006 773.00000000000011 -320.79499999999996 62.500000000000007 -54.359999999999992 24109.315000000006 4873.6400000000003 7317.6550000000016 8.5000000000000018 2067.9650000000006 610.36500000000012 -940.04499999999985 309654.40500000009 18056.105000000003 -3622.0299999999993 3713.5000000000005 33325.420000000006 1793.3550000000002
decision_type=2 2 2 2 2 2 2 2 10 2 2 2 2 2 2 10 2 8 2 2 2 2 2 8 8 2 2 2 10 2 2 2 2 2 2 10 2 2 10 2 10
left_child=2 3 7 4 13 9 11 8 -1 10 24 12 20 36 29 18 22 -10 19 -9 23 -11 30 -5 -4 -26 -14 37 -13 -3 31 -6 40 39 -28 -23 -2 -8 -18 -29 -16
right_child=1 14 5 6 16 -7 27 15 17 21 -12 28 26 -15 32 -17 38 -19 -20 -21 -22 35 -24 -25 25 -27 34 33 -30 -31 -32 -33 -34 -35 -36 -37 -38 -39 -40 -41 -42
leaf_value=0.043099341712398466 0.037281272468274548 0.0060713601749854459 -0.0021023882823000568 0.029677384437472001 0 -0.011672686307213144 -0.00099373812184313051 0.014010348122831726 0.033873613150425849 0.011360970894701814 0.034991561917803796 0 0.0044177476568067467 0.00053443503364589487 -0.013169559363740391 0.0027611088260003983 -0.013696044571943235 0.01708846210335398 0.012593575481542399 0.043382247831290841 0 -0.011509634247432001 -0.0059692316202050412 3.8171229521668948e-05 0 0.02023192749961843 -0.012996153917663494 0.0040851978059137511 -0.016409828959480465 -0.010043137498107372 0 0.020974753247840327 -0.00040757507757026914 -0.011182932356239041 0 0 0.012796844552468049 -0.020126571671015392 0 -0.0038054703123734102 -0.022636621060909124
leaf_weight=192.72654591314495 36.608962527476251 11.928108220919965 19.403583297505975 22.435493493452668 16.296880828216672 44.763699188828468 16.494826224632561 54.99444724060595 110.1195394936949 30.97443772200495 39.441155972890556 15.492623661644755 12.03068054653704 23.029850178398192 74.726259141229093 30.408115431666374 29.179040126502514 91.937398921698332 67.467101250775158 52.082043423317373 22.883718148805201 25.293669250793755 16.694802449084818 13.903871841728686 21.073403018526733 19.730249116197228 48.227053080685437 13.927714434452357 58.172102156095207 22.670206250622869 16.612502632662654 22.661664439365268 14.982585186138747 50.196840163320303 15.033262382261453 15.182401431724427 27.005258038640022 185.93351511936635 11.886304118670521 11.120284846052526 674.51282461266965
leaf_count=2600 1311 756 905 1472 921 4012 1375 1786 1526 1408 1687 1269 859 1166 7624 1365 2278 2080 1689 1277 1734 1560 1137 1020 1143 740 4323 1113 5353 2268 1051 1323 1152 4387 1207 952 1094 17776 967 1050 73880
internal_value=7.13264e-05 -0.0135031 0.02484 -0.00469889 0.00975863 0.00659033 -0.0108734 0.0311637 0.0355508 0.0120663 0.0191996 -0.00286799 0.00224563 0.0233409 -0.0208824 0.0217333 -0.000274761 0.0271828 0.024373 0.0302128 0.0142347 0.000371758 0.00496282 0.0218149 0.00582452 0.0115385 -0.00624672 -0.0164126 -0.0130432 -0.00200055 0.0100083 0.0143807 -0.0215995 -0.00745383 -0.00981708 -0.00619676 0.0296768 -0.0190737 -0.0111908 0 -0.0218939
internal_weight=2300.25 1484.65 815.598 685.827 199.975 215.863 485.852 599.735 394.783 171.099 99.6484 208.179 134.514 86.6441 798.82 204.952 113.331 202.057 174.544 107.076 59.2231 71.4505 72.2659 36.3394 60.2072 40.8037 75.291 277.673 73.6647 34.5983 55.571 38.9585 764.222 75.2448 63.2603 40.4761 63.6142 202.428 41.0653 25.048 749.239
internal_count=164596 139866 24730 54186 11248 12407 42938 12323 6206 8395 4475 17237 10615 3571 85680 6117 7677 3606 4752 3063 4226 3920 4432 2492 2788 1883 6389 25701 6622 3024 3295 2244 82656 6550 5530 2512 2405 19151 3245 2163 81504
is_linear=0
shrinkage=0.0243464


Tree=22
num_leaves=40
num_cat=0
split_feature=18 51 28 28 8 116 133 55 22 32 8 72 8 116 149 134 131 27 16 12 7 7 153 153 120 120 6 81 153 140 73 24 120 22 28 11 95 73 6
split_gain=1189.19 224.66 165.031 135.631 54.2135 26.011 40.2478 24.0275 22.78 29.4706 19.9587 19.5615 18.9705 16.8973 16.6063 15.7782 11.989 11.9376 11.5646 10.8097 16.8706 7.82484 7.70031 5.81009 5.25701 4.22918 5.51678 3.77377 3.58958 3.34864 3.05885 2.84677 1.81659 1.63418 1.33469 1.02802 1.20882 1.00569 0.495815
threshold=1497.6950000000002 1.0000000180025095e-35 11672.170000000002 5376.1950000000006 28023.305000000004 776.98000000000013 1.0000000180025095e-35 1.0000000180025095e-35 18750.185000000005 1.0000000180025095e-35 31441.060000000005 1504.5850000000003 12388.855000000001 1889.4750000000001 542.50000000000011 139352.40000000002 1354.8150000000003 1.0000000180025095e-35 -235.09999999999999 7.5000000000000009 1508.7550000000003 1726.1700000000003 568.90500000000009 3137.7750000000001 309654.40500000009 105570.00000000001 96.500000000000014 30952.535000000003 4768.2450000000008 2873.8850000000007 1.0000000180025095e-35 1.0000000180025095e-35 91494.000000000015 52745.450000000004 26406.245000000006 206.68500000000003 2.5000000000000004 2.5000000000000004 125.50000000000001
decision_type=2 2 2 2 2 10 10 2 2 2 2 2 2 10 8 8 10 2 2 2 2 2 10 10 10 8 2 2 10 8 2 2 10 2 2 2 2 2 2
